MENTION -3.469505 2.788198 -1.279230 1.887032 -1.532220 -0.824514 2.417239 -0.236426 3.022132 -3.722372
the -3.331378 -0.957107 -1.931389 -0.848235 0.707699 -3.373126 0.992500 -0.120088 0.453613 -2.423485
is -0.888747 -0.704318 -1.755414 0.941891 0.287226 -2.363749 3.287133 -0.829681 -0.890978 -2.894201
RT -2.593759 0.952163 -1.098999 1.095507 -0.950558 -0.970479 1.768564 0.547047 2.354268 -1.061905
of -3.352491 -2.031246 -2.405411 1.122566 -0.896356 -1.974326 1.465277 -0.794801 0.482808 -0.524229
to -1.055384 1.250153 -2.148332 -1.908171 -1.129892 -2.994556 1.267735 3.031958 -0.803203 -2.198909
oppressing -3.130411 0.210286 -1.651810 1.328492 0.058619 -2.944519 0.720338 0.325723 1.206782 -0.426439
URL -1.967453 0.875967 -0.457455 0.014359 -1.442169 -1.574111 1.794604 0.168848 0.608629 -1.826791
and -0.913770 -0.837104 -0.863657 1.785581 0.483627 -2.835840 3.430129 1.318690 0.523267 -0.713163
a -1.553931 -0.586006 -1.089217 1.992652 -1.571573 -1.462539 2.048215 0.332774 -2.348851 -1.455459
in -1.855877 -0.147210 -2.742753 0.356615 1.520016 -1.462211 1.581993 0.557809 0.669364 -1.810585
I -1.101488 2.223754 0.747262 1.290339 -1.218600 -1.861538 1.781273 0.925659 -0.034774 -2.300997
you -1.618274 1.375666 0.569423 0.443952 -2.107103 -3.111222 1.402519 0.768012 -0.031064 -1.424137
ageism -0.624540 1.138421 -1.668653 1.252458 1.240115 -1.902449 2.536338 1.517325 0.872400 -1.404122
that -1.830344 0.025493 -0.617097 1.734581 -0.336965 -2.252653 0.816547 0.799114 -0.984394 -2.871481
s -0.655177 0.014073 -1.137545 2.882255 -0.292962 -1.779754 2.106621 0.723414 0.144474 -1.269497
not -1.690660 0.331013 0.516438 1.915761 -1.383529 -2.864219 2.346389 1.087961 -1.081569 -0.665870
are -1.691719 0.636886 -1.569753 0.106432 -1.534648 -3.104927 0.468325 0.128747 0.458972 -0.024577
for -0.340364 0.552331 -1.171181 0.418661 -0.873577 -2.431895 1.278728 0.912962 0.553114 -0.600719
people -2.370589 0.876654 -1.540749 0.522305 -0.397137 -2.743227 -0.576556 0.749698 0.541484 -1.248730
on -0.311991 -0.617288 -0.867122 -0.256306 1.470460 -0.997253 2.341458 0.257920 0.629649 -2.418944
t -1.767463 1.483983 1.213680 -0.259110 -1.878593 -1.848666 1.374267 1.057247 0.216750 -1.663930
it -0.713627 0.471406 0.343709 0.639850 -0.197944 -2.680826 1.636901 1.206939 -0.682126 -1.182216
about -0.178085 1.313370 -0.711669 -0.164212 1.093335 -1.185586 2.547997 1.814440 0.528735 -1.842850
as -0.231754 -0.672722 -0.280738 0.739647 -0.660018 -1.853742 1.872780 0.658281 -1.531716 -0.130205
have -1.695886 0.398403 0.206300 0.085267 -0.957059 -2.291432 0.714461 0.840255 -0.639663 -1.215696
but -1.678817 -0.205897 0.567455 2.064371 -0.962244 -1.875755 1.350081 0.057382 -0.213247 -0.267216
This -0.457363 1.242776 -0.648853 0.453754 0.206465 0.164576 1.845004 -0.310088 0.763674 -2.205717
who -2.031460 0.497201 -1.061057 1.016184 -1.014571 -1.906063 -0.090367 0.549061 0.465358 -0.408610
her 0.492984 0.864669 -2.248757 -0.234786 1.841815 -0.634072 1.293255 2.426912 1.533870 -1.599603
case -1.736228 -2.545974 0.216495 3.279707 -1.788725 -0.436057 1.526463 -1.127774 -1.607550 1.101622
Nigerians -1.855844 -1.848452 -1.611499 4.909582 1.000168 -1.201198 1.305006 -0.661008 0.959805 1.952595
be -1.261334 0.918694 0.364854 -0.482539 -0.402256 -2.297214 0.693931 1.209050 -1.422741 -1.392479
by -1.688689 -0.417284 -1.232177 1.021187 0.960316 -1.815788 0.178220 0.261690 0.307174 0.643788
The -1.323435 -0.035116 -1.335869 0.438253 0.160812 -0.254199 0.823147 -1.081710 0.865332 -1.886080
this -0.774661 0.409409 -0.456538 0.958368 0.129199 -1.128883 1.377391 0.787047 -0.605427 -1.762583
we -1.165085 0.503939 0.704240 -0.458208 -1.046268 -1.601182 1.372126 -0.043684 -0.464868 -1.566614
will -1.639061 0.188249 1.238742 0.518499 -0.356670 -2.308875 -0.024405 0.789852 -1.584955 -0.888887
with -1.061273 0.422450 -1.261423 -0.235892 -0.780103 -1.688227 0.633118 0.478262 0.328140 -1.061319
an -1.223140 -0.255369 -1.084790 -0.236390 -1.595375 -0.425207 2.253083 -0.698220 1.001016 -0.351841
Kashmiris -1.723483 -1.638683 0.187314 -1.450707 0.552513 -2.083846 -1.033592 -0.279595 -1.993383 -0.976259
EMOJI -0.729764 1.300836 -0.337691 1.373880 -0.456879 -0.325392 1.201355 0.261256 0.924875 -0.521678
being -0.632329 0.030092 -1.238625 0.950744 -0.799306 -2.671160 0.683880 1.185848 0.511803 1.644959
one -1.445704 0.232323 -0.590753 1.700733 0.336176 -0.321551 0.826315 -0.601227 -0.567455 -2.188053
re -1.539485 1.058524 1.197582 0.595691 -2.552833 -2.393097 0.324450 0.980324 -0.733353 -0.057374
against 0.128593 0.635073 -2.225276 0.128396 0.618588 -1.268857 0.448890 1.177227 2.160086 0.484616
at 0.119210 -0.389016 -1.277126 0.514665 -0.422733 -1.561687 1.628763 0.294373 1.010911 0.142576
all -1.109096 0.859530 -1.008545 -0.329962 -0.509949 -2.405233 0.995335 0.551722 1.116330 -0.060188
like -1.309113 1.389265 -0.518458 0.333391 -0.320166 -1.333208 0.980774 0.971583 0.503343 -0.881177
amp -0.389264 0.568672 -1.552765 -0.201202 0.726046 -1.636889 0.825343 0.188793 1.364145 -0.495331
You -1.538691 1.992604 0.409868 0.433033 -2.168377 -1.036388 -0.286686 -0.048430 0.533312 -0.771341
was -0.942788 0.854618 -0.600497 1.898432 0.136074 -0.572869 0.888199 1.574667 -0.514088 -1.279085
his -0.525972 -0.155727 -1.292837 1.540683 1.196656 -1.126152 1.430620 1.187243 0.518319 0.164466
It -0.834463 0.563301 -0.501354 1.348160 -0.666071 -0.488319 1.641234 0.213070 0.582515 -1.098239
India -1.390425 -0.335048 -0.626125 1.073122 0.414533 -1.324497 0.729463 -0.842307 1.380215 -0.557391
has -0.871966 -0.254318 -1.462452 0.153039 0.024415 -0.112478 1.044431 0.864732 -0.334883 -1.587868
our -0.433613 0.160957 -1.788857 -0.011645 1.088961 -0.520451 0.920608 0.556494 1.000194 -0.772683
do -0.307671 0.901819 0.526124 0.468726 -1.060001 -1.685164 1.324588 0.475404 -0.447232 -1.092189
their -1.430253 0.085089 -1.224948 0.625970 0.548921 -0.843164 0.519660 1.060227 1.212562 0.035159
they -1.516779 0.526165 0.343742 0.395627 -1.774915 -2.375587 0.360954 0.505441 -0.554237 -0.523398
just -0.078014 0.829160 0.068445 0.747764 -0.361264 -1.704365 1.777565 1.395230 -0.946343 -0.864907
don -0.889458 2.074072 1.811621 0.174892 -1.791545 -1.278477 0.651820 0.544533 0.346048 -1.700728
women -1.301646 -0.613458 -0.679127 0.011107 -0.245706 -2.034950 1.431272 -0.109263 0.237462 -0.575777
Ageism -1.237930 0.182296 -0.313416 0.073157 -0.540603 -0.702139 1.914748 -0.684347 0.800114 -1.636350
SMILEY 0.642176 -0.201881 0.247568 -0.864589 -1.314899 -0.371710 2.678936 -0.167083 1.344980 0.243883
can -1.320080 1.035703 1.260300 -0.010129 -1.833715 -1.729189 0.127375 0.405780 -0.562196 -1.309344
e -0.143995 0.211786 -0.052315 -0.056135 -1.607971 0.045804 1.913633 -0.417639 1.533699 -0.268117
how 0.430715 0.364858 -0.009989 0.395824 0.208150 -1.990612 1.861239 0.567336 -0.302735 -1.263874
he -1.047088 0.031292 0.006593 1.687719 -0.968428 -1.331402 0.727051 0.626430 0.025650 -0.112095
me -0.600471 0.724048 -0.842932 0.936012 -0.328384 -1.291940 1.165470 0.987325 0.099370 -0.918620
She -0.396885 0.728329 0.779906 1.213577 1.874125 1.772492 1.697594 -0.325316 0.235822 -2.968953
South -2.773587 -1.645334 -0.878313 2.723212 -0.469662 -0.096935 -1.449597 -2.221878 0.634902 2.812024
If -1.014802 0.531462 0.954092 0.267595 -1.079563 -0.641591 0.973392 -0.268250 0.675375 -1.014466
No -0.551434 1.146511 -0.027844 1.431188 -0.234795 0.830861 1.268522 -0.860534 0.506333 -1.610711
Why -1.196522 0.624800 -0.250994 0.310062 -0.749626 0.233793 0.591367 -1.268528 -0.128603 -2.099202
We -1.115474 0.840339 0.265855 0.034688 -1.279897 -0.548699 0.398429 0.082140 -0.489409 -1.094449
government -1.333085 -0.231724 -1.082434 1.280587 0.240660 -0.239113 0.295326 -0.475069 0.472149 -1.255420
pure -1.531310 -2.372412 -0.425133 3.878225 -0.981843 0.334085 0.933935 -1.417595 -0.833127 1.781144
Africans -2.589727 -1.588798 -1.099199 0.955670 0.163824 -0.697709 -1.071243 -0.981838 -0.101552 2.654428
out 0.106571 0.285096 -1.871845 -0.421825 1.141239 -0.975481 0.593210 1.254366 -0.111577 -1.132803
Intimidating -2.241198 -0.455699 -0.864966 1.040509 -0.596052 -2.239076 1.055055 0.224241 0.119511 -0.381779
Note -1.113789 0.117866 -0.683122 2.375753 0.457211 -0.429745 3.473793 -1.356932 0.890569 -2.469785
Nigeri -1.649833 1.284919 -0.306939 2.102705 -0.267112 0.609693 0.349769 -0.927808 3.125071 0.462207
old -0.193591 -0.562802 -1.459978 0.936401 -0.293999 -0.607144 0.947980 -0.047051 -1.151433 -1.151112
your -0.675195 0.182423 -0.847170 -0.298040 0.317249 -1.424632 1.046511 0.653806 0.790880 -0.679349
stop -1.367810 1.071751 -0.321276 -1.187719 -0.411897 -1.510694 -0.639600 0.993973 -0.009641 -1.548983
should -1.731267 0.079769 0.531123 -1.337899 -0.848290 -1.696509 -0.663627 -0.351918 -0.565786 -1.330314
my -0.419977 0.604973 -0.992176 0.307025 0.727801 -1.292695 1.412349 0.462763 0.478521 -0.810080
know -0.744451 1.502025 0.417789 0.666414 -0.620324 -0.458286 1.072149 0.280591 0.465582 -1.883298
what -0.143754 0.399801 -0.213723 0.963004 -0.646815 -1.374447 2.167264 0.583638 0.131700 -0.810761
society 0.391220 -2.209365 -1.762108 1.182182 1.476321 0.516759 1.771404 0.235916 -1.990658 -2.385327
she -0.214762 0.315791 -0.040884 1.868983 0.240969 -0.755906 0.991014 0.487727 0.186096 -0.595770
been -1.157285 0.621992 0.455492 0.375794 -0.408145 -1.060598 0.211189 1.048693 -0.207388 -0.619858
age -0.503985 -0.880702 -1.092408 0.013169 0.293331 -0.722653 1.749006 0.088774 -0.526751 -1.192450
never -1.436061 0.144781 0.920568 -1.000501 -0.633734 -1.615709 -0.536405 0.247915 -1.620254 -1.634809
so -0.414588 0.461966 -0.015298 0.875257 -0.858200 -1.606998 1.015897 0.225330 -0.627815 -0.703366
up -0.283549 0.178848 -1.478021 -0.800176 0.187400 -1.325731 -0.906141 0.995757 -0.365404 -0.925284
Kashmir -1.209566 -0.856708 -0.844655 0.253231 1.316723 -0.711264 0.702044 -0.256681 1.141165 -0.031749
when -0.256967 0.295292 0.757766 0.255287 -0.046294 -1.674159 1.123474 0.699782 -0.450631 -0.400184
think 0.035801 1.128941 -0.162753 -0.185871 -0.401428 -1.618750 1.274295 0.782320 0.226880 -1.797737
from -0.841820 -0.006642 -1.447937 -0.121020 0.064497 -0.985620 0.113381 0.238070 0.526063 -0.547196
oppressed -1.503171 -0.210559 -0.568371 1.294529 -0.180041 -1.698964 0.142312 0.236399 0.897896 1.261047
them -0.955707 0.454768 -1.087251 0.208115 -0.896688 -1.467146 0.835843 0.690646 0.704328 -0.194710
Pakistan -0.771289 0.359320 -0.040231 2.836629 -0.165148 -0.749614 1.012863 0.321658 0.497328 -0.366141
ve -1.586651 1.125788 2.275921 0.391323 -0.502585 -0.034473 0.325020 -0.181142 -1.083206 -1.960180
A -0.338231 0.157757 0.195013 1.601619 -0.590194 0.698387 1.138672 -0.840900 1.257600 -0.285894
us -1.154219 0.282159 -0.831553 -0.021771 -0.182107 -1.642687 0.627902 0.205889 0.731163 -0.441701
m -0.586836 0.505566 0.015105 0.972400 -0.706973 -1.407267 0.567001 0.506307 -0.193985 -0.216901
would -1.234291 0.584406 1.648588 0.002413 0.359609 -0.148724 -0.122798 0.445048 -1.060668 -2.059005
careful -1.535273 -1.049407 3.209023 0.892915 0.063090 -1.868632 1.750426 -0.380233 -3.121199 -0.680594
see -1.270971 1.530565 -0.269014 0.081732 -0.604509 -0.935774 -0.537826 0.680317 -0.017463 -2.278821
sexism 0.262176 0.506582 -0.707702 1.525135 1.211542 -0.395063 2.088630 1.008859 2.149485 0.514198
other -1.092676 -0.656439 -1.181677 0.147806 0.088429 -2.204507 -0.080298 0.375087 0.788868 0.990740
only -0.679196 -0.001527 -0.250026 -0.171046 -0.362077 -1.464724 0.908580 0.201987 -0.305976 -1.131770
more -0.218767 0.731622 -1.181344 0.045506 0.402477 -0.898681 0.393259 0.861751 0.227982 -1.277517
need -0.924739 0.325138 -0.083537 -1.140480 -1.540042 -1.255949 0.656330 0.378682 -1.297128 -1.704158
or -0.572487 0.028036 -0.348222 0.080498 -0.594458 -1.320344 0.832765 0.243142 -0.108503 -0.419237
take -1.348223 -0.491977 -0.021283 -2.050904 -0.485292 -1.334750 -0.587356 -0.016193 -0.847515 -1.307787
men -0.829555 0.309821 -0.829112 -0.095968 -0.150627 -2.024480 0.146841 0.011824 0.735766 0.096065
curfew 1.455138 1.139797 1.937835 -0.403428 -0.759355 -0.933071 0.718475 0.570024 -2.493864 -0.735480
i -1.041265 1.026778 0.058171 1.267649 -0.763492 -0.608930 0.660238 0.072539 0.370507 -0.907992
if -0.350510 0.738075 0.201394 1.559313 -1.146567 -1.046785 1.038159 0.499693 -0.175874 -0.640499
say -1.055756 1.286171 0.553082 -0.862347 -1.233837 -1.295313 0.486687 1.139530 -0.240779 -1.651483
there -0.172741 0.244259 -0.048646 0.707428 0.274977 -1.228066 1.519063 0.316681 0.016687 -1.063181
no -0.617523 0.339281 -0.936242 0.562575 -0.303854 -0.967948 0.327515 0.026428 -0.133445 -0.700088
industry -1.864785 -1.242817 -0.979769 0.607147 0.699195 -0.592937 0.538637 -0.751636 3.543943 1.184826
because -0.802225 0.453418 -0.514357 1.083228 -0.917868 -1.402478 0.207551 -0.033375 0.178697 -0.368451
burning -0.011144 -0.655152 0.590877 1.925263 -1.741925 1.405697 1.975429 -2.188456 -0.869561 -1.749385
Modi -0.974958 0.746754 -0.078239 -0.130834 -0.207299 -0.168380 -0.143748 -0.711953 0.436820 -1.516740
own 0.073837 0.776868 -1.726582 -0.164915 1.752870 0.561958 0.359414 1.410533 0.929712 -0.586155
name -2.859648 -1.704933 -1.488557 -1.875290 -0.555537 -0.161644 -2.047470 -1.546141 -0.119092 -0.494730
still -0.515213 0.718844 0.269971 0.171485 -0.391902 -1.225484 0.947906 0.309819 -0.058109 -0.425128
music -1.510705 -0.973178 -1.719431 -0.058777 1.520746 0.402822 0.488486 -0.785868 2.233465 -0.773369
love 0.420166 1.820895 0.630208 0.551639 -0.212251 -0.332202 0.535224 0.929565 -0.029836 -1.258144
white 0.027439 0.436717 -1.525590 1.294423 0.780002 -1.257976 0.279985 0.939608 0.315601 -0.051849
hating -0.992226 0.198414 -0.463673 -2.685823 -0.024656 -2.688336 -1.042680 1.359288 -1.326696 -1.964264
then -0.679227 -0.566189 0.158854 1.313767 -0.816234 -0.862412 2.096219 0.565810 0.171766 0.496791
world -1.486848 -0.563649 -1.854480 -0.138043 1.846135 0.016812 0.286771 -0.899639 0.793709 -1.415182
In -1.468607 -0.661313 0.522572 -1.203201 -0.946624 -0.073233 1.323957 -1.292397 0.377898 -1.864696
Because -0.083853 -0.784606 -0.140311 -0.245334 1.287838 -0.121667 0.891662 -1.830640 0.781537 -2.181598
kashmir 0.677892 -0.273743 -0.801595 0.321438 0.187897 1.399003 1.070602 -0.809245 -2.269149 -2.842530
talking 0.354467 2.248864 -0.717555 0.996313 0.296434 -0.385051 1.541085 2.200103 1.159388 -0.134949
People -0.147586 1.374043 -0.793245 -0.343543 -0.923247 -0.132764 0.053400 -1.434857 0.209559 -1.710130
while -0.741108 -0.870642 -0.922638 0.107308 0.502216 -0.418790 0.181046 -0.347705 -1.048866 -1.038512
What -0.644772 0.354854 -0.234515 0.621105 -0.816678 -0.505161 0.998267 -0.326451 0.020618 -0.903449
get -0.302911 0.022979 -0.073044 -1.420835 -0.814850 -1.029376 0.813925 0.388059 -0.238294 -1.443054
older -1.313918 -0.439097 -0.920352 -0.608804 -0.731641 -1.882991 0.185267 -0.162630 0.591475 -0.125010
America -1.155153 0.881123 -0.404077 0.841738 -0.397086 0.048029 0.396147 -0.256268 -0.315102 0.287408
very -0.684807 -0.768110 -0.639596 -0.284004 0.191113 -0.803270 -0.108459 -0.532181 -1.378211 -1.615448
its 0.183102 0.358560 -0.747809 -1.361868 -0.350066 -1.298777 0.947483 0.560471 0.698618 -0.230869
And -0.944365 0.495307 -0.170586 0.608928 -0.968948 -0.113671 0.452633 -0.552110 -0.346257 -1.035943
believe 0.044014 1.633651 -1.076034 -1.592947 0.338545 -0.937354 0.011136 2.300489 0.418847 -1.930844
went -0.163028 0.627394 0.245412 -0.411104 2.035544 1.328068 1.258588 -0.892463 1.128685 -2.773886
They -0.820938 0.693876 0.108417 -0.283956 -0.693097 -1.388222 0.298987 0.110341 0.221284 -0.232448
over -0.904635 -0.480563 -0.305347 -0.308876 -0.046380 -1.238019 0.632761 -0.201498 -0.040658 -0.771894
some -0.300961 0.096922 -1.296229 0.451393 -0.196870 -1.208168 0.225747 0.919340 -0.052756 -0.085014
these -1.216724 0.765794 -1.032577 -0.503527 -0.679693 -0.860327 -0.151246 0.039580 2.043494 0.327192
pop 1.297148 -1.005597 0.407396 -1.915568 1.108630 -1.289326 2.886621 1.608114 -0.574042 1.520080
too -0.325226 0.290486 -0.432357 0.578625 -1.055985 -1.014431 0.793804 0.440791 -0.036445 0.191738
offensive -0.025127 -2.281362 -1.873627 2.975617 0.747867 0.879793 1.671071 -1.691290 -0.153836 -0.809488
year -0.652118 0.081858 -0.714012 0.690023 -0.056183 0.365872 0.506114 -0.287373 -0.710553 -2.052048
w -1.457103 1.134381 -0.797806 0.042484 -0.656556 -0.295927 -0.094359 0.351609 1.447668 -0.722385
Now -1.439734 0.337297 0.095880 -0.207512 -0.207055 0.218167 -0.161360 0.203719 1.514855 -0.158768
into -0.644385 0.215085 -0.528477 1.128489 0.888794 -1.203652 -0.377986 0.604581 1.052961 0.557935
But -0.217589 0.259298 0.240648 0.472166 0.095431 -1.100806 1.269718 0.411853 0.540814 -0.362815
When -0.977900 1.560859 0.248182 0.114995 -0.641115 0.208544 -1.139253 -0.059909 0.541567 -1.523899
which 0.004832 -0.561850 -1.536531 0.223983 -0.084389 -0.732618 1.182312 -0.681675 -0.471093 -0.599241
than -0.851814 0.221794 -0.331760 -0.048982 0.547449 -0.326262 0.313369 -0.737947 0.256665 -0.785089
real -0.343158 -0.885140 -0.753358 -0.259880 0.062735 -0.268469 0.579883 -0.397674 -1.006241 -1.452774
young -0.186070 -0.445053 -1.295607 -0.536618 -0.111289 -1.380982 0.627893 -0.771028 -0.464591 -0.601189
years -0.981627 0.615593 -1.263265 0.434658 0.063634 -0.734682 -0.210547 0.477704 0.156788 -0.502064
become 0.272388 0.090111 -1.414624 0.516369 0.291139 0.406678 -0.253782 2.416793 -0.829216 -0.340774
even -0.232649 0.532094 0.966224 -0.089704 -0.654676 -0.837010 0.820859 0.397347 -0.549271 -1.190253
sexuality 0.141760 -0.277867 0.821058 1.539719 -0.974482 0.805257 0.613007 -0.209388 -2.429843 0.370127
funny 1.029753 -0.917243 -1.638136 -1.242726 1.775259 -1.177429 1.192542 0.480646 -0.165636 -0.954939
loving -1.840164 -0.418555 -0.606232 1.374979 -0.125799 -0.880202 -0.419440 -0.200060 1.905291 0.986904
many -0.649231 0.815793 -0.449677 0.387950 -0.383766 -0.451816 -0.460055 0.487387 -0.598246 -0.753720
threat 0.049049 1.380010 0.470294 -0.157505 -1.703975 -1.173042 1.463124 1.794461 -2.783649 -0.060877
back 0.769102 -0.658434 -1.375260 -1.393013 0.913107 -1.439316 1.197488 0.925316 -0.144308 0.071645
queer -0.292026 1.715618 -1.044547 -0.210013 -0.103762 0.574447 0.408629 0.366573 3.375301 0.019570
describe 0.125786 -1.356501 0.044617 3.526616 -0.040169 1.094374 0.843817 -0.185566 -2.446894 -0.535286
those -0.797101 0.194408 -0.681071 0.896985 -0.479225 -1.245232 -0.295750 0.576811 -0.010639 0.459149
security 0.550746 2.714630 -1.240528 -1.766053 -0.080786 -0.284348 -0.648763 2.172153 2.006513 0.503904
want -0.859560 0.952832 0.646901 -0.308403 -1.418214 -1.088711 0.358171 0.972408 -0.328797 -0.718375
every 0.034932 -0.692199 0.043949 1.173219 -1.031880 -0.498415 0.011656 -0.069619 -1.890070 -0.207103
national -0.485512 1.857128 -0.232037 -1.297371 -1.634353 -0.676682 -0.222825 2.536887 0.070941 0.103058
agencies -0.099593 -0.275328 -0.620507 1.984474 0.489330 1.870588 0.501095 -0.886377 0.359580 -0.369807
supremacy 0.792041 0.884419 0.559656 1.194936 1.732441 2.598323 0.562182 1.271950 -0.659395 -1.173232
Discriminates 0.513264 0.970607 -1.344746 -0.446910 1.382538 0.274018 -0.639386 1.322758 2.337711 1.312784
Malaysian -1.453344 -0.532067 -1.392464 1.059475 0.009994 -0.587248 1.129187 -0.117318 0.519335 -0.833299
start -1.320462 0.016234 -0.979066 0.118457 -1.284117 -0.558690 -0.409225 -0.392274 -1.191064 -1.214998
feel -0.190441 1.523676 -0.486824 0.142031 -0.648362 -0.848849 -0.341680 1.006896 0.642212 -0.448565
loiting 0.670945 -0.799610 -0.283488 0.048189 -2.211807 0.305687 2.960051 0.042669 1.264968 0.822878
raised 0.528899 -0.502381 -1.246465 -0.285898 1.554905 0.197568 -0.256786 2.371665 -0.776866 -3.642207
fighting 0.007793 1.935896 -0.203882 -0.057417 -0.229977 -0.070638 -0.205704 0.736325 2.453717 0.204355
now -0.850941 0.171608 -0.121928 0.419664 -0.545029 -1.630045 0.476258 0.335322 -0.573330 -0.204320
ethnic 0.964115 0.694651 -1.358763 -0.365843 3.496133 3.066805 1.441141 1.925949 1.663825 0.043706
said -0.616023 0.400548 1.005208 1.186776 -0.274868 -0.850988 0.667020 0.323646 -0.397355 -0.902961
Born -2.156280 -0.515726 -1.911940 1.102775 0.162542 -2.383118 1.704025 1.046256 0.230606 -1.490853
rewarded -1.604263 0.933069 0.000235 0.814893 -1.176545 -1.704000 1.651203 0.716205 0.115571 -1.781838
minorities -1.123900 1.219700 -0.408491 0.223464 0.468258 -0.596702 -0.394658 -0.216983 2.359578 0.651354
thing -0.489209 -0.321871 -0.417053 0.423480 -0.017391 -0.514370 0.755665 -0.142490 -0.498834 -1.651424
really -1.048787 0.413467 0.512502 -0.456550 -1.014914 -0.782990 0.711503 -0.477180 -0.237598 -1.555328
why -1.032846 0.325035 0.355023 0.110395 -0.465271 -1.229850 0.978446 -0.805340 0.376588 -1.252178
IG 1.563014 -2.558352 0.628153 -0.837008 1.775776 0.965263 3.771866 -0.666326 -0.801639 -2.320121
Indian -0.128095 -0.350142 -1.425151 -0.573294 2.208239 1.490779 0.464232 -0.656337 0.292039 -2.101698
gun 1.670178 -1.476978 -1.912689 -1.744082 3.172158 0.314964 1.272583 0.543617 -0.752590 -0.656172
Stop -1.432269 0.503007 -0.557823 0.972806 -0.223206 0.135369 0.391871 -0.999686 1.049305 -1.110332
did -0.279574 0.888122 0.430015 1.633636 -0.726085 -0.848669 0.009683 0.969232 0.298791 0.394021
go -0.163866 0.287880 -0.124726 -0.412248 -0.200264 -1.300933 0.309506 1.206836 -0.608346 -0.696035
sense -0.660392 -1.870363 -0.186636 -1.451331 0.291035 0.261486 0.405790 -1.644946 -0.322205 -0.399908
everyone -1.537217 -0.435949 -1.142166 0.598556 0.368186 -1.281908 -0.138847 -0.317461 0.409789 0.463273
any -0.800197 -0.712888 -1.197154 0.073451 -0.135997 -1.062656 -0.253196 0.802640 -0.302081 0.008587
much 0.155897 -0.016142 -0.058651 -0.181912 0.059877 -0.404325 1.735127 -0.580542 0.175056 -1.208990
possible 0.890696 -2.308477 -0.189028 0.097857 0.614015 -1.236183 0.121987 0.109838 -2.026637 1.243976
were -1.094074 0.689938 -0.146719 -0.194120 -0.635088 -1.203762 -0.433788 0.286525 0.368097 -0.255844
Instagram -0.062415 0.032058 -1.744704 -0.652675 1.777566 1.378710 1.562814 1.363760 1.948781 -1.824181
racism 0.527211 0.411534 -0.582879 1.271140 0.551842 -0.150936 1.423182 0.626811 0.888971 0.618068
care 1.070529 -0.383952 0.748699 -0.346667 0.602997 0.014691 1.993031 0.071107 0.459610 -0.417116
lot -1.855691 -0.070985 -0.764528 1.323379 -1.775435 0.334847 0.246283 -0.837514 0.032065 -0.819512
MOVING -1.068157 0.548130 0.177172 0.186588 -1.141455 2.599597 0.125087 -0.649467 3.466980 0.698541
after -0.604207 0.311422 -0.425295 0.404245 -0.314579 0.808204 -0.721324 -0.279927 0.121971 -1.375221
wi 0.116635 0.573397 0.576926 1.466700 0.264527 1.888874 1.606709 0.121595 2.324495 -0.012081
way -1.384855 -0.344728 -0.720840 -0.439808 -0.585692 -0.412315 0.435141 -0.623651 -0.148713 -1.445164
NOT 0.808299 0.000623 -0.279791 -0.741307 0.702873 1.710406 0.512893 -1.248046 -1.054194 -1.691804
Oppressing -0.886749 0.242123 -0.660978 0.209055 0.227238 0.168473 0.758981 -0.787877 0.972585 -0.975928
Pakista -3.245724 -0.421744 -1.194331 -0.492147 -1.211256 1.042310 -0.417076 -1.982728 2.233700 -0.295226
So -0.763180 0.629171 0.098819 1.166602 -0.553855 -0.657405 0.812461 -0.248499 0.552806 -1.130595
THE 1.325481 0.848465 -0.459101 2.181886 0.528778 -0.138078 0.508625 -1.290579 -0.061679 0.269005
adults 0.315901 1.259106 -2.478505 -1.479189 0.713114 -0.235305 -0.282020 1.414591 1.797477 -0.640263
Great -1.394291 1.104781 -0.511670 0.847290 -0.184499 -0.245968 -1.238287 -0.373021 0.660293 2.165363
protecting -0.829770 2.390397 -0.488898 0.467595 0.857280 0.153703 -0.617939 0.509155 4.087551 1.796238
put -0.476167 1.050734 -0.819355 0.893859 -0.779521 -0.030746 -1.206065 1.090181 0.999990 0.581041
liberate 0.546102 -1.365196 -0.508330 -0.378827 -0.593048 -0.580289 0.065152 -0.471407 -3.592461 -0.315911
soon 1.499497 -2.268930 0.641650 0.911420 0.074115 -0.765652 1.974366 0.154728 -2.014674 0.985257
Make -2.147814 2.574892 1.660027 0.331879 -1.893137 0.027267 -0.344105 -0.605073 0.920025 0.314595
d -0.575522 1.670325 -0.134764 -0.406807 -0.428347 -0.383342 -0.013651 1.140699 -0.074160 -1.584917
That -0.288200 0.407300 0.371966 0.780264 -0.010039 -0.331903 1.169920 -0.249503 0.384465 -0.854896
rich 0.820779 -0.533869 -0.794416 0.227794 1.812137 -1.951874 0.333530 1.944882 -0.510902 0.688246
According -1.162590 1.393411 -1.503961 -2.338424 -0.249457 -0.031623 -0.238502 0.947559 1.277223 -2.040432
Lizzo -0.423625 1.032639 0.070238 0.102880 0.021299 0.907343 1.734067 -0.784318 0.558864 -1.871008
corporations 0.694387 1.685040 -0.169861 0.050377 0.961826 2.445745 -1.064138 -1.121223 3.139978 0.168315
ages -1.745659 -2.073560 -2.218234 -2.849996 0.509436 -0.824472 -0.066593 -0.284635 1.506690 -0.897455
am 0.219322 0.732204 0.480618 2.308461 0.058297 -0.159615 1.720489 0.095332 -0.230703 -0.248193
good -0.633615 -0.180441 -0.681487 0.573962 -1.328746 -0.325974 0.332546 -0.396642 -0.870817 -0.604386
woman -1.042985 -0.076598 -0.862596 -0.138461 -0.449166 -1.077856 -0.142148 0.274411 -0.756808 -1.144848
Again -1.316187 -0.920434 -1.572986 0.651221 1.688508 0.051306 -1.089238 -0.963841 0.584564 2.662828
Remove -0.819720 -0.528257 -0.498380 0.283331 0.039696 -1.914452 0.846842 0.703783 -0.909520 -1.040057
Bernie 0.497843 0.292727 -0.613314 0.649004 0.089342 -0.198218 1.458648 0.481092 0.686460 -0.124231
calling -0.467644 0.331786 -1.416625 1.347937 0.144787 -1.651141 -0.300928 0.656129 0.991879 1.167587
person -0.694735 -0.621017 0.006634 1.570899 -0.034579 0.276698 0.016331 -1.028156 -1.200281 -1.423463
tolerate -0.788384 0.077886 1.230996 0.102499 -1.446286 -0.971090 1.100570 1.823566 -1.484900 -0.598742
c -1.617664 -0.476846 0.120341 1.524013 -1.520989 0.816504 1.353753 -1.436828 2.367742 0.918707
media -0.780437 -0.907388 0.476483 0.133819 0.626281 -0.616255 -0.158031 -0.168123 -1.118030 -0.704929
perpetual 0.005527 2.228900 0.289154 0.019712 -0.065554 1.236806 -0.248931 0.842398 2.826007 -0.032494
OPPRESSING -0.806784 0.340482 0.755429 1.280647 -0.803970 1.926590 0.913328 -0.840116 2.260518 1.054691
community -0.533963 -0.905234 -0.947438 -1.985762 0.980982 -0.510914 -0.014640 -1.280381 -0.358866 -2.018671
group -1.732202 -0.611863 -0.361212 2.271308 0.305177 0.021843 -0.021263 -0.747586 0.539497 0.120744
ll -0.798016 1.054845 0.917073 -1.581110 -1.209386 -0.620790 -0.190319 0.302878 -0.684595 -1.501824
candidates -0.236022 1.274132 -0.380843 2.501495 1.291209 0.169849 1.092226 1.177483 0.629771 -0.619681
Just -0.066702 0.739117 -1.318902 -0.447522 0.293605 0.307066 0.845015 0.865762 0.260855 -1.027137
black -0.749931 -1.008216 -0.861925 -0.585040 -0.050635 -1.497453 -0.112306 -0.874024 -0.462980 -0.671068
here -0.261891 -0.093530 -0.143021 0.721056 0.238964 -0.910677 1.017477 0.291615 0.491658 -0.445609
right -0.519178 -0.311947 -0.413896 0.202823 -0.450366 -1.097035 0.312618 -0.009696 -0.704792 -0.225986
NBC 0.188783 -0.445115 -1.075379 0.634898 -0.046576 -0.483371 1.777610 -0.680588 0.235706 0.080483
Rexha 1.175441 1.118074 1.727471 0.322963 0.313917 2.462436 0.538226 -0.998243 -0.782978 -2.918828
days -1.563955 -0.438826 0.264617 0.180282 -0.989534 -1.187500 -0.970868 -0.199546 -0.567445 0.782387
does -0.712474 -0.332910 0.918274 1.101911 -0.390634 -1.028567 0.881553 0.071803 -1.022856 -0.796219
News 1.049976 -0.376565 -0.217234 0.673409 -0.487041 -0.886204 2.052942 -0.389452 0.012010 0.258797
body -0.998871 -2.305419 0.282218 -0.439464 0.022186 -0.020117 1.992542 -1.153787 1.478046 1.525544
mind -0.009805 -1.514964 0.473918 -1.334924 1.794827 -0.964506 1.592981 -0.058005 0.306256 0.043239
time -0.695152 -0.368130 -0.811328 -0.164868 -0.275362 -1.174761 0.329379 0.010051 -0.506792 -0.469999
politics 0.858503 0.951292 -1.603409 -1.081526 1.542785 0.696667 2.313882 1.141650 1.740407 -0.629696
LEFT -1.483942 -0.901174 -0.852082 0.858187 0.336422 -0.171613 0.789013 0.971800 1.939364 0.676203
achieved -0.742097 -1.106517 -1.405636 -0.469358 2.266304 -1.722048 0.730305 0.989268 -0.922287 -0.773831
Y 0.991726 2.255290 -0.444313 -1.290825 -0.047415 0.156040 0.799901 0.862195 2.526826 -0.418408
Obama 1.584421 1.418344 -0.490060 -0.139711 1.636204 2.555381 0.381523 0.667703 2.110556 -0.771832
newspapers -2.973387 -1.690488 0.624295 1.634455 -1.118044 -1.555957 -0.402133 -1.355670 -1.320604 -1.130096
China -0.370167 0.255218 -0.593427 0.953997 1.059847 0.189415 1.190754 -0.121954 0.624678 -1.056857
discuss -0.304388 -0.295301 -1.866884 -2.442809 0.038766 -1.592208 -2.134278 0.964766 -1.568039 -0.676104
recently 0.645119 -0.977476 -0.511201 0.308729 1.659557 -0.543684 2.593935 0.060751 0.879552 -0.686429
He -0.187819 -0.261666 -0.164181 0.968671 -0.081871 -0.452497 0.555683 0.032550 -0.122821 -0.269707
oppression -1.455026 -0.646859 -0.658204 0.810843 -0.323506 -1.339470 -0.022359 0.032013 -0.018563 0.316999
Bebe 2.152884 2.443505 1.677317 0.291529 0.084425 1.024895 0.995466 0.892319 -1.064747 -1.685882
control 0.598304 0.559051 -0.890901 -0.092676 1.355109 0.038141 1.294407 1.267361 1.386874 0.108660
also -0.444416 -0.145716 -0.028421 0.684860 -0.208716 -0.713315 0.837408 0.033397 -0.702530 -0.942163
pro 0.970966 0.035753 1.247196 2.134036 0.928774 -1.042306 0.187401 1.770028 -0.914377 0.332993
religion 1.075947 -0.074654 0.140361 1.171448 1.555254 0.578090 1.799106 0.775696 0.783674 0.732480
during -0.517611 2.088311 -1.259269 -0.122700 1.354105 0.669875 0.542735 0.159794 2.690837 -0.916246
realize 0.185747 2.007728 -0.004885 0.620982 0.593752 -0.289206 -0.219140 1.895053 -0.517197 -1.129607
new -0.176305 0.319463 -0.117548 0.273635 0.065581 0.584371 0.585672 0.098371 -0.766244 -1.643479
same -1.297157 -0.680631 -0.720688 -0.472042 0.005990 -0.915648 -0.138340 -0.376123 0.113661 -1.004693
race -0.152322 0.098255 -2.085466 -0.156593 1.301928 0.917373 0.845831 0.602978 1.626020 -0.395139
Your 0.380438 0.652771 0.453972 0.479271 -0.016050 0.807790 0.959115 -0.973718 -0.015964 -1.458372
VMAs -0.269376 -0.759595 -0.961574 -1.567383 1.303689 0.143717 0.899182 0.007067 3.123075 -0.263042
comment -0.592378 -1.032649 0.922269 -2.079387 1.201120 -0.372238 1.188099 -0.527969 -0.288851 -0.868800
shaming 0.091336 -2.158554 -1.948580 -0.936526 2.609312 -0.562723 0.444256 0.811352 -0.138495 -0.165500
sexualabuse -0.793909 -0.660738 -1.024226 -0.717731 -0.104920 -0.423105 0.787636 -0.523115 1.555844 0.544972
SiriusXM -0.044830 1.640265 -1.140273 1.968783 -0.096332 -0.806905 0.173449 0.894484 1.507292 0.782527
Weekend -0.334021 0.122978 0.066617 2.059918 -0.791984 -1.868180 1.699344 1.155012 -1.280839 -0.609164
Countdown -0.627033 0.652990 -0.508262 0.675233 -0.336316 -1.470668 1.147161 0.872550 -0.084411 -0.997952
Hits -1.001655 0.907895 -1.130436 1.105038 0.016364 -0.952100 1.171141 0.555604 1.139238 -1.018209
human -1.143593 -0.959342 -1.659020 0.177627 -0.122968 -0.897217 -0.816042 -0.383641 0.027801 1.285408
Barack -0.059921 1.036432 -0.538885 0.208537 0.729255 2.365784 0.099046 -0.264464 2.189330 -0.826286
Trump -0.119836 -0.312196 -0.997642 -0.852650 -0.078925 0.753551 1.308029 -0.299391 -0.135437 -1.636147
under -0.390786 0.334594 -0.571051 -0.414523 1.199320 0.057841 -0.883094 0.823327 -0.442470 -1.384644
purpose -1.642100 -1.384519 -1.481978 0.852761 1.190621 -2.008381 -0.001936 -0.698915 1.179361 0.695394
Democrats -1.265961 0.491241 0.294035 0.616548 -0.632413 0.530512 0.207680 -1.194985 0.171920 -1.537597
Opinion -0.757950 1.203496 0.262813 0.250081 -0.399786 -0.064813 1.074472 0.185467 0.313418 -1.756963
effect 0.750184 -0.608270 -1.149520 -1.558713 -0.051368 0.034182 0.247557 -0.512316 -1.716129 -1.436395
Age -0.793665 -0.802754 -0.003768 -0.304055 -0.044636 -0.040164 1.930731 -1.398571 0.607594 -0.715535
size 0.428120 -2.157177 -1.910162 0.653231 2.798633 -0.885136 1.255855 0.276908 -0.692815 -0.158147
star 0.182336 -0.975678 -1.977953 -1.617806 2.565079 -1.702743 0.256719 0.679349 1.008912 0.492783
Do -0.743075 1.651312 1.187366 -0.083479 -1.187845 -0.165729 0.039319 -0.171184 0.222908 -0.989616
ALL -0.202382 1.833195 -0.415339 -1.497436 -0.480895 2.193608 0.351216 -0.827105 2.075938 -1.929243
th -1.095340 0.172487 0.248990 0.407284 -0.648185 -0.292837 0.561677 -0.566224 0.145700 -0.458696
natural -0.795853 0.825465 0.530289 1.142823 -0.561418 0.148320 1.548525 -0.211780 0.661839 -1.047888
rights -0.379230 -0.500636 -1.277583 0.588386 0.677698 -1.015492 0.264249 0.769369 0.559459 0.477834
last -0.910180 -0.104244 -0.737755 -0.131342 0.498209 -0.106811 -0.396660 -0.860656 0.385417 -0.551429
Dem -1.168539 0.307100 0.253613 0.268990 -0.518925 0.710827 -0.333788 -0.536318 2.331228 0.537416
Hetrosexuality -0.521298 0.069525 -0.552297 0.836434 -0.353085 -1.943096 1.605981 -0.033449 -0.223980 -1.280909
Muslims -1.394234 -1.007531 -1.080594 -0.367957 0.431089 -0.973735 0.349130 -0.956575 1.090061 0.201451
geniuses -1.016879 -0.277954 -1.271400 0.857443 -0.227360 -1.922894 1.511568 0.035856 0.657433 -0.495031
had -0.540659 0.402475 0.030453 0.323810 -0.614168 -0.624109 0.258700 0.322571 -0.732247 -0.880229
Americans 0.426869 0.636848 -2.030985 -1.078588 1.581978 0.274147 -0.429255 1.914518 -0.034943 -0.597068
fuck -0.917859 -0.042905 0.447344 -1.196634 -0.132923 1.567911 0.083500 -1.183001 -0.156262 -2.598399
work 0.234084 1.077621 0.016504 0.044068 0.087303 -0.438565 0.694579 0.977743 0.639626 -0.497780
fights 0.739799 -0.858545 -1.327022 0.674731 2.171004 0.139857 0.556572 0.244848 2.127436 1.415489
self -0.524595 -1.769194 -1.818599 -1.172058 0.100229 -0.884905 -0.273230 -0.053703 -0.381321 0.347259
clapping -0.669619 -0.161716 -1.705386 -0.388949 0.531964 -1.882181 1.397203 0.936367 0.254311 -0.371571
created -1.583375 -0.349538 -0.480768 -0.641047 -1.954331 0.842947 1.156568 -1.544834 2.357848 0.132747
shamers -0.198011 -0.169169 -1.253127 0.429200 0.003597 -1.966197 1.760423 0.802814 -0.160020 -0.631229
hand 0.585374 -1.246852 0.156092 1.135377 1.025338 -1.488991 1.665747 0.339291 -2.103942 0.127182
All -1.086234 0.958471 -0.115978 -1.150668 -0.441845 0.408654 -0.337099 -0.358021 1.316444 -0.735991
most -0.537600 -0.498834 -0.620227 -0.066778 0.224142 -0.041038 0.086413 -1.152542 0.370109 -0.863685
treating 0.741924 2.743444 -2.141540 -2.525966 -0.555682 -1.659424 -1.729947 1.663387 1.137045 0.030489
doing -0.717537 -0.180729 -0.013432 0.820958 -0.707424 -1.350401 0.823830 0.016573 -0.386441 -0.190799
enjoy 0.607894 -0.022101 -0.382661 0.947751 1.001589 0.646211 1.774210 0.538258 1.937826 0.345372
IT -0.422277 0.064470 0.679961 0.445094 -0.017450 1.902694 0.614047 0.566920 1.287479 1.482812
DO 1.028281 1.277487 -0.200917 -2.088664 0.418525 1.911060 0.126766 -0.745640 0.215065 -2.006070
via -0.587746 0.819450 -0.562397 -0.422165 -0.029359 0.620058 0.783138 -0.263549 2.055469 -0.725410
To -0.754116 0.580099 -0.338452 -0.936682 -0.333950 1.255613 -0.874376 -1.371970 -0.554796 -2.419841
implying -1.199475 -1.822445 -1.920931 1.418578 1.011206 -1.120756 -1.175598 -0.103269 -1.282125 -0.875739
write -0.221225 -1.602173 -0.376902 1.054430 -1.294601 -1.497201 1.352221 0.903333 -2.241157 1.621754
isn -0.806289 1.573859 0.980913 -0.682342 -0.620159 -0.623714 0.520496 0.705765 -0.074436 -1.517205
socionormativity -0.188907 -2.059853 -2.100724 0.727527 1.808300 -1.401476 -0.588099 0.305766 -1.291134 -0.740794
straight -0.803900 -0.618312 -0.863393 0.400590 -0.391235 -0.610718 0.245589 -0.384785 -0.367014 -0.122250
victim -0.983713 -0.275354 -0.416958 1.846455 -0.244752 1.519315 0.309473 -0.978693 1.190514 -0.457686
view -0.878091 -2.508345 0.342672 1.131340 1.109933 -1.439493 0.795119 -0.608375 -0.109910 0.749007
racist 0.799042 0.058183 -1.215419 -0.191478 0.535506 -1.396569 0.833352 1.260652 0.147363 0.459135
u -0.727119 0.278295 0.229732 0.293405 -0.709809 -0.658938 0.514346 0.019420 0.021635 -0.548156
VERY -0.343942 1.519640 2.007375 0.161322 -1.887136 -2.322323 1.106299 2.469695 -1.021680 0.284125
peace 0.196765 -1.710334 -1.749440 -0.548713 3.516573 -0.225498 1.256391 -0.427228 0.586651 -1.289546
whole -1.434974 -0.547742 -1.206310 -0.133296 0.829371 0.451611 -0.117981 -1.300417 0.929729 -1.182972
My -0.479874 -0.032808 -0.044211 -0.569259 0.327870 0.322116 0.607705 -1.256639 1.006880 -1.302675
needs 0.819784 1.821003 -0.726430 -0.649863 1.147115 -0.421621 0.676674 2.153792 -0.249915 -1.339071
freedom -0.992677 -0.090187 -1.112000 0.482024 0.621077 -0.657050 -0.237845 0.402846 0.438654 0.331972
h -0.807972 1.056115 0.551858 0.015027 -0.671576 0.248088 0.521965 -0.167140 1.278243 -0.969116
him -0.458689 0.395520 -0.255274 -0.116490 -0.629998 -0.882093 0.517882 0.495272 0.086688 -0.000876
ABOUT 1.062212 -0.970311 0.843312 -1.204948 0.270421 2.256228 -0.671398 -0.708008 -0.709957 0.573005
living -0.537662 -1.554007 -1.121393 -0.603612 -0.857505 -0.039834 -0.589154 -0.841749 -1.580130 0.288741
support -0.446935 0.384158 -0.746855 0.021824 0.161768 -0.670924 0.338906 0.596314 0.263013 -0.961497
WOMEN -1.454145 0.681500 0.483213 1.241689 -0.795214 1.790734 0.526338 -0.613632 2.924921 0.483123
hold 1.570828 -0.438528 0.936221 1.820341 1.755978 -1.930056 2.710441 1.033985 -0.619085 0.624105
make -0.551240 -0.169969 0.221546 -0.107125 -0.641681 -1.424990 0.176887 0.885461 -1.067215 -0.003268
wrong 0.031293 0.713426 -0.753593 0.585100 -0.443284 -0.774836 0.136309 0.784816 1.007999 0.734403
CARE 0.359045 -0.273603 0.439843 -1.430309 -0.048555 1.668908 -0.475952 -0.534637 -0.130254 -0.473974
where -0.441422 -0.119125 0.490844 0.214614 -0.453398 -0.954287 0.118128 -0.183471 -0.157734 0.026398
FOLLOWING 0.537267 -0.335095 0.490266 -0.209053 0.254940 0.805722 -0.388451 -0.229513 -0.365512 0.701704
INVOLVES -0.635111 0.473551 0.543621 0.168010 -0.266283 1.412155 0.745167 0.056933 1.023265 -0.009742
TRADITION 0.116048 -0.037741 0.589488 -0.036820 0.119768 1.142189 0.162750 -0.090391 0.156874 0.477912
UNLESS 0.134737 -0.160461 0.495465 0.120229 0.171328 1.035616 0.323984 0.130152 0.241001 0.625192
yrs 1.444910 -0.238495 -0.319105 3.598504 -0.442758 -0.544719 1.092834 0.625911 -1.969479 1.041337
lgbtq 1.495246 -0.400392 -0.403785 0.674841 2.737606 -0.153299 1.262534 1.628813 1.154425 0.955473
US -0.286963 -0.575780 -0.318772 -0.765286 0.521812 0.783896 0.395011 -1.486011 -1.013715 -1.997556
catch -2.042546 -0.691924 0.409608 2.343140 -0.571104 -1.599729 0.979024 -0.712425 -0.495218 0.914338
reinforce 0.535094 -1.724042 -2.302452 -2.452125 1.241523 -0.880941 -0.349764 1.205942 -0.262338 -0.336018
well 0.234177 -0.267218 0.115861 0.628299 0.253152 -0.432929 0.953747 0.008745 -0.055429 0.573738
without -0.375783 -0.422741 0.601812 0.201531 0.940131 0.261944 -0.852110 -0.482315 -0.842921 -1.687702
Indigenous -0.618603 -1.849226 -0.846738 1.167002 -0.417851 0.935759 1.112125 -1.904628 1.315421 1.147140
Madonna -1.430400 -0.342288 -0.144766 -0.112020 -2.330554 0.665383 1.234338 -2.336934 1.533934 -0.219695
album 1.699641 0.613600 0.479132 -1.667254 1.443680 1.209877 2.314701 0.924719 0.072592 -0.003752
history -1.197653 -1.197419 -1.597794 0.214433 1.082992 0.523316 0.085825 -0.175068 -0.473643 -0.501337
near 0.118654 0.136780 1.562369 2.725039 -0.989429 -0.434254 1.148367 0.481926 -1.278388 -2.214197
talk 0.077859 -0.051216 -0.293082 -0.734230 1.349609 0.294709 0.356203 0.064536 -1.383507 -2.627997
ever -0.515465 0.316829 -0.044315 -0.457691 0.683157 0.517968 0.018827 0.984109 -0.067454 -0.594742
voices -2.483601 0.330338 -0.441203 -0.029015 -1.297974 -1.924548 -2.765290 -0.770793 2.028742 1.018177
going 0.245097 0.232048 -0.020146 -0.692178 -0.488777 -1.308449 0.750804 0.762708 -0.604042 -0.326238
o -1.391909 0.062473 -0.271917 0.317039 -0.154029 0.175445 0.315878 -0.879047 1.303395 -0.023648
Oh -0.302434 1.984342 0.944958 0.649805 -1.284512 -0.440503 0.066394 0.000719 0.761590 -0.289018
justice 1.070877 -1.120427 -0.239361 -1.860612 0.662143 -0.294958 -0.366570 0.721637 -0.964176 0.882386
platonormative -0.617573 -2.050880 -0.672038 -0.604232 1.304398 -1.094755 -0.095378 0.083500 -2.526707 -1.817479
health 0.690478 -1.322390 0.685063 0.654456 0.562451 0.829597 1.774642 -0.280590 -0.027656 0.516011
independent -1.217060 -0.679381 -1.427131 -0.864698 0.845547 -1.927163 -1.914340 0.599824 -0.325136 0.742154
supporting 0.835824 1.127295 -0.603215 0.014684 0.942465 0.351067 1.258358 1.263705 1.062799 -0.839882
words -1.424949 -1.083214 -0.437900 0.458504 -1.955136 -0.660851 0.566931 -0.920456 -0.904205 0.340037
loneliness 0.951241 -0.204660 0.001086 0.595574 1.148154 1.345841 0.813408 0.264830 0.746360 0.460033
wrongdoer -1.315839 0.841366 -0.770365 0.219369 -0.606778 -1.594827 0.599812 0.746616 0.266705 -1.795474
life 0.153012 0.311560 -0.245675 0.476412 0.358060 0.597645 1.430150 0.099372 0.604091 -0.614261
African 2.063528 0.180272 -1.809415 -1.981166 1.113669 0.002177 0.092436 1.949165 0.069123 -0.222323
fun -0.301516 -0.925404 0.061099 0.863523 -0.395217 -0.432111 1.385149 -0.418973 -0.019968 0.965615
ppl -0.594651 -0.472996 -0.848351 -0.330764 -0.414707 -0.167677 0.832868 -0.847837 0.950753 -0.004045
erimental 0.372554 0.018997 -0.220853 -0.148873 -0.164028 -0.086409 1.841182 0.128825 0.473462 -0.269321
founder -0.459629 0.330345 -0.036117 -0.799118 -0.071329 -1.015816 -3.398797 1.455333 -3.215204 -1.772196
lies 0.063917 0.040844 -0.009187 0.712376 0.035925 -0.177580 1.613365 0.489674 -0.489566 0.170709
How -0.108666 0.834624 0.393586 -0.049055 -0.421419 -0.175038 0.660685 -0.187604 -0.302544 -1.316662
desires 0.546185 -0.272232 0.854676 1.898682 0.925688 2.949421 1.943206 0.520314 2.683507 1.122545
legacy -0.968430 -0.773476 -0.759852 0.180231 0.316908 -1.235076 -0.030339 0.351806 -0.709421 -0.970769
nothing 0.427302 0.924917 -0.292209 0.929223 -0.764828 -0.317216 0.640620 0.601679 0.299312 0.340761
equal 1.602385 -1.395793 -0.198794 -0.523674 0.396066 -0.108631 0.404144 0.658259 -0.974528 0.968820
Valley -1.602768 -1.106562 0.557483 -0.880393 0.472280 -1.307683 -0.015273 -0.053323 -2.306509 -1.012254
filthy 1.298072 -0.868219 -0.699588 0.024183 1.218714 -0.507704 0.790744 3.264867 -0.808043 1.321034
gt -0.049372 1.695789 1.012137 0.360255 -1.649120 -0.905287 -0.225328 0.524162 0.324151 0.259022
makes 0.102959 -0.370015 0.503381 1.396705 -0.311538 0.475344 1.097913 -0.318528 -0.975442 -1.556888
Army 0.217436 -0.348780 -1.439697 -0.272852 3.461729 0.053340 0.699431 -0.063000 1.604755 -0.611591
feminists 0.397907 -1.795919 -0.892381 2.328483 -0.668240 0.493316 0.152526 -1.164079 -0.208826 -0.094503
goal -0.669075 -1.253954 -1.179541 1.769068 2.168119 -1.146881 0.267879 1.185937 0.808187 3.202076
Allah -0.004381 -1.425312 1.843828 1.849517 -1.233243 -1.609152 -0.262495 0.481640 -3.158177 -0.496356
EU -1.281072 -0.011647 -1.476395 -1.270633 0.664809 -0.314726 -0.366924 -0.362977 1.110025 -1.224097
Patriarchy -2.284144 -0.823171 -0.859086 -0.540897 -0.423219 -0.078513 0.919481 -1.466589 0.374741 -1.516644
There -0.232948 0.570468 0.197175 1.008832 -1.041954 -0.130218 0.661084 -0.811446 -0.374729 -0.559447
action 1.956659 -1.830804 -0.090216 -1.385702 1.550687 0.762462 0.460050 0.452720 0.103960 1.410190
college 0.678369 -1.824141 -0.230127 -0.872388 -0.044521 0.421191 -0.817390 -0.632014 -1.763017 0.493633
post 0.959944 1.451441 -0.496904 -0.715922 1.564748 0.417129 1.078144 1.578042 1.537432 -0.224396
prosperity -1.934032 -0.570903 -0.451450 -0.228643 1.313822 -0.030611 -1.169961 -0.570565 0.439081 0.688002
sold 1.857868 -0.133826 -1.345264 -0.897513 2.154507 1.111041 0.095463 0.601796 -0.228544 -0.356428
may -1.039361 0.806805 1.070664 0.012841 -1.039351 -0.910426 -0.630928 0.144444 0.047309 0.416228
power -0.635472 -0.855600 -0.772154 0.606595 0.529209 -0.676325 0.504397 0.011358 0.072643 0.166457
Sanders 1.130162 0.617347 -0.949190 -0.374985 0.191081 -0.357563 1.247526 1.549340 -0.362217 -0.271504
climate 2.971153 -1.031326 1.664484 -0.417084 0.934627 1.251077 1.657754 -0.264248 -0.447260 0.866779
More -0.256167 1.865358 -0.307228 -0.186700 0.702265 0.313593 -0.176632 -0.413675 1.289933 -0.700760
Taylor 0.566294 2.370344 -0.032426 0.329617 0.351171 0.810084 0.854048 1.223759 0.953820 -0.986603
Twitter 1.641563 0.944615 -0.038699 1.581767 1.070102 -0.187473 0.954613 1.636835 -0.028307 -1.001450
find 0.785877 0.319885 1.286625 -1.007389 -0.610368 -0.645926 1.519414 0.884031 -0.505331 0.351120
left -0.355751 -0.329534 0.367303 0.537212 0.778016 -0.726840 0.461451 0.194192 -1.088551 -0.910414
two -1.249655 -1.150339 0.164518 0.584167 -1.466730 -0.338079 -0.301024 -1.353404 -0.843959 -0.006920
saying -0.597952 0.070459 0.201381 0.762586 -0.825538 -0.918342 0.238457 -0.422220 -0.471617 -0.514385
SexualAbuse -0.579251 -0.363516 -0.356334 -0.683557 -0.167241 0.465924 0.363387 -0.525987 0.227135 -0.476478
Universal 1.429044 -0.768849 0.643716 0.828303 1.032136 1.768951 1.108817 -0.188720 0.837020 1.091586
away 0.435917 1.017175 -0.788808 -1.050247 -0.025240 -0.295228 0.106872 0.725290 1.420064 0.104696
OK 0.054972 0.392212 0.779792 0.427469 -1.015471 1.894443 0.486097 -1.460025 -0.261495 -1.692679
wage 0.417326 -1.824083 -0.283512 -1.672904 0.127129 0.874529 -0.115639 -1.097504 -1.853670 0.418250
RI -0.596314 0.957279 0.409984 0.135853 -1.105782 1.750433 0.403804 -0.522271 2.752406 0.350675
affordable 0.654525 -0.879961 0.268053 -0.941190 0.317278 0.901382 -0.709926 -0.585465 -0.759680 0.752078
army 0.163843 -0.977252 -0.695574 0.720337 1.975896 0.997165 1.607327 0.273643 -0.021471 -1.816340
could -1.001131 -0.020765 0.918556 0.189824 -0.669513 -0.211357 -0.517769 -0.282496 -0.327233 0.414694
day -0.362123 -0.549448 0.636737 0.358577 -0.394397 -0.252846 0.452802 -0.386584 -0.634868 -0.437360
doesn -0.360056 0.473993 0.675128 -0.141339 0.067997 -0.978760 0.466620 0.947169 0.172468 -0.329167
wants -0.300365 0.789604 -0.402329 -0.080773 0.177507 -0.264979 0.291040 0.824171 -0.218289 -1.497409
Imagine -0.441710 1.262162 0.529920 1.486280 -0.537535 -1.074586 0.561724 0.868945 0.454124 0.637163
HR 0.319824 -1.413524 -0.461445 -2.565509 0.655175 -0.184873 1.157126 -0.037461 0.240266 -0.732141
always -0.594530 0.016974 -0.145736 -0.014236 0.007406 -0.280986 0.182381 0.091921 -0.709554 -0.778991
Free -0.291925 1.670921 0.243375 0.168701 0.448788 1.914168 -0.543479 -1.060050 2.058165 -0.483350
able -0.688915 -0.806267 -2.195534 0.273259 0.126247 -2.069189 0.891094 2.778199 -1.392018 2.016436
speak 0.809745 1.302345 -1.016173 -0.384239 1.261538 0.159051 0.086731 1.850721 -0.366717 -1.182467
tor -0.652660 1.074833 -2.566684 0.287444 1.722623 -0.163009 0.084054 1.631604 3.304275 0.534059
book 0.148566 -0.209174 -0.935010 -1.493257 1.713486 -0.491569 0.983920 -0.060266 -0.295756 -2.368548
playing -0.986919 0.287337 -0.822987 1.779242 -0.102128 1.642763 0.194180 -1.458974 2.566733 -0.326480
read 0.917895 1.004508 -0.811417 -0.269358 0.059554 -0.705923 0.760215 1.500578 -0.406070 -0.631315
woke -0.809087 -1.991024 -0.709886 -1.400067 -1.187887 -0.633749 -0.905192 0.248124 -1.294222 0.752120
FOR 1.053400 0.140511 0.856262 1.491887 -0.817648 -0.040974 -0.220272 -1.058012 -1.820780 0.474667
job -0.167573 -0.805214 -0.185845 1.148424 0.141146 0.351030 0.901709 -0.454794 -0.521305 -0.128869
listen 1.628760 1.307245 -1.344904 -1.985428 0.944508 0.048853 1.048091 1.999142 0.141747 -1.247434
Everyone -0.001274 -0.179446 0.316451 -0.319620 0.834405 0.680783 1.608782 -0.657339 1.888789 -0.878328
hate -0.218149 0.883256 0.162404 0.569266 0.474058 -0.050536 0.092953 0.575054 -0.047408 -1.249425
public 0.626156 -0.071887 -2.101376 0.364151 2.176506 -0.441397 -0.006310 1.561617 1.672838 0.868834
seems 0.453231 2.061484 -0.433810 -1.173254 0.727469 -0.327369 0.349099 1.696886 0.739047 -0.910885
Can -1.132396 1.244157 0.376979 -1.126068 -1.720455 0.347241 -0.301129 0.042677 0.458364 -1.087850
Not -0.564681 0.938624 0.217298 -0.285373 -0.981820 -0.271822 -0.351542 0.463489 -0.529026 -1.111676
district 0.464109 -0.015013 0.052418 0.009070 0.340619 0.593924 1.271335 -0.977222 -0.779389 -1.318916
man -0.420696 -0.577926 -0.055271 0.646200 0.093515 -0.565845 0.049879 -0.502577 -0.909689 -0.431413
violence 0.518967 0.215715 -1.161051 1.593488 0.373304 0.272503 0.892370 0.174867 0.791280 0.408935
oppres -1.366437 0.156552 -0.154398 0.832720 -1.393030 -0.522672 1.140401 -0.372268 0.664289 -0.743080
Nobody -2.041160 -0.717720 -1.324816 -0.391700 0.392643 0.310048 -0.153391 -1.327713 0.528694 -2.010370
making -0.619599 0.109591 0.106747 0.944761 -1.067315 0.232304 0.941309 -0.515822 -0.213661 -0.678356
mean -0.684009 0.726096 0.864061 0.139119 -0.672207 -0.896066 0.223045 0.340150 0.098272 -0.582981
negative -0.131696 0.655842 -1.296792 -0.339383 0.547361 -1.399793 -1.568269 1.565542 0.242304 1.141900
Biden 1.240668 -0.112380 -0.233753 0.129346 0.002510 0.694791 2.014506 0.028881 -0.220138 -1.543315
hair -0.030500 -0.022124 2.343435 -0.720868 -1.005527 -0.295156 0.727641 -1.274351 -1.087714 -2.144184
today -0.736066 0.473935 -0.322345 0.960750 -0.342017 -0.379373 0.497460 0.121395 0.853955 0.651138
abuse -0.437457 -0.912355 -0.589675 -0.276884 -0.110452 -0.778621 0.276904 -0.575682 0.105086 1.003419
sexist 0.557398 1.750250 -0.763475 0.434787 0.980620 -0.717978 -0.433214 1.134030 1.466306 0.233354
Of -0.273844 -0.060244 0.744163 0.199333 -0.139179 0.252672 0.416287 -0.499982 -0.881817 -0.943357
fight 0.122638 0.490571 -0.588272 -0.210879 0.046844 -2.046586 0.223601 1.051244 0.231925 0.424925
illegal -0.638870 1.366475 -0.000185 0.976507 -0.526127 0.581165 -1.027670 0.828374 1.717618 1.479786
IN 2.093848 0.138238 0.070637 0.597162 1.095107 -0.015703 0.122701 -0.936866 -0.844222 -0.560410
another -0.608567 0.122244 -0.422568 0.824536 -0.281568 -0.398423 0.293368 0.032798 0.293578 0.303911
course -0.768791 -0.551760 0.588125 0.424312 -0.057069 -0.598551 -0.146144 -0.632872 -1.451748 -0.370296
elderly -1.061143 0.692800 0.529729 0.542457 -0.979613 0.863702 -0.128663 -1.024028 -1.148913 -1.869080
thinking -0.199945 0.983964 -1.009308 0.262756 0.709280 0.031853 -0.040727 0.531195 1.286557 -0.279341
face -1.340850 0.518922 -0.723339 -1.709055 -0.645341 -0.822880 -0.973722 0.190249 0.790506 0.514948
great -0.441327 -0.092433 -0.273910 0.422238 -0.753745 -0.355698 0.056057 0.214587 -0.463499 0.148580
muslims 0.028133 -0.173056 0.425283 1.207146 0.703864 -1.018066 1.363163 0.521509 0.482815 0.687575
nobody -1.112156 -1.104309 -1.341548 -0.581855 1.567947 0.321617 -0.003666 -0.884280 0.375098 -1.392516
someone -0.527401 0.176881 -0.375954 0.392924 -0.385939 -0.520890 0.053128 -0.168316 0.078299 -0.426721
country -0.166124 -0.527357 -0.368080 0.562164 0.034470 -0.608891 0.751446 0.190720 -0.753823 -0.499120
fo -1.567865 -0.155689 -0.647469 1.317195 -0.565739 -0.047686 -0.198385 -1.071290 1.505007 0.256929
outraged -0.528669 -1.385578 1.790916 1.610115 -2.120283 -1.092166 2.061701 1.650839 -0.838474 1.730192
pretend 0.218172 0.445312 -1.128349 -1.477234 -1.081912 -1.032413 0.248499 1.502668 0.115231 -0.395202
such 0.514056 -0.752010 -1.053637 0.218397 -0.937043 0.324016 1.201028 -0.784478 -1.179724 -0.544232
won 0.392263 1.130621 1.446524 -0.955700 -0.542626 -0.179024 0.895358 1.206440 0.295820 -0.864169
article -0.120048 0.257627 -0.342722 0.001992 1.095011 1.370344 0.703902 -0.472505 -0.168183 -2.157791
must -0.940150 0.347658 0.311680 0.019203 0.135528 -0.958874 -0.082149 0.273691 -1.043785 -1.085976
selling 0.813656 0.689934 1.713320 -0.528023 -1.655986 -1.034407 1.290444 0.253973 -1.652813 -0.890341
st -0.843081 0.851548 -1.645975 -0.521207 0.398624 0.661945 -0.687999 -0.381159 2.469194 0.260928
trans -0.667791 0.251413 -0.708247 0.979793 0.786459 -0.880764 0.002623 0.139897 1.721917 0.948279
favorite -0.641601 -1.209468 -2.034471 0.197371 1.099996 -2.478039 1.174478 -0.276678 0.266583 1.499701
n -1.027801 -0.246186 0.448095 -0.942659 -0.067871 0.072052 0.107643 -0.472164 0.249866 -0.641528
place -1.228413 -0.897994 -1.243557 0.716193 0.122502 -0.476135 0.045510 -0.495316 -0.494752 -0.537697
voters 0.376267 1.278090 1.177939 -1.127183 -0.973233 1.671042 -0.431250 0.636238 -1.482632 -1.802598
god 0.364578 0.989553 0.015042 0.196811 0.593944 0.224349 -0.262222 0.628194 1.222089 0.668064
let -0.282349 0.260809 -0.175795 0.887563 -1.004675 -0.528653 -0.007449 0.866058 -0.261323 -0.159042
something -0.343851 -0.112689 0.263268 0.014570 -0.515214 -0.692565 1.005741 -0.315591 -0.311527 -0.510653
AMERICANS 0.380740 0.100378 0.925684 0.445704 -1.096769 0.476886 -0.639655 -0.854922 -1.375655 0.403894
alien -0.676606 1.843892 -0.315100 0.621416 -0.140635 1.277970 -0.923790 1.025147 2.794768 1.090805
birthday 0.905194 -0.108520 0.073551 1.507201 0.126091 -1.250925 0.640855 1.443186 0.663930 2.206239
cognitively 0.926179 1.379510 2.292379 1.988876 -1.413338 0.787073 0.070870 -0.158792 -0.962792 0.113418
outrage -0.149556 -1.568655 -1.276223 -2.442260 -1.148522 -0.988352 -1.235000 1.111742 -1.496568 1.536457
respond -0.084588 2.964682 -0.319943 1.310569 -0.621836 1.391085 -0.906367 0.699399 1.157927 -0.941609
series -0.364751 -1.916004 -2.364534 0.611712 0.147647 -0.193515 0.411743 -0.110096 -1.076532 1.214683
supports 0.003842 0.167681 0.424107 1.912850 1.666353 1.264840 1.151395 -0.118607 1.240119 -1.271947
As -0.667779 0.394769 0.021338 0.733689 -1.227472 0.247246 0.664140 -0.413372 -0.124420 -0.628964
BLACK 0.846737 -0.292349 0.526300 0.208308 -0.440637 0.468565 -0.338068 -0.538077 -1.063206 0.554197
NATION 1.138667 0.296855 0.259475 0.852855 0.365943 0.159072 0.132868 -0.793940 -0.763305 -0.079156
WORST 1.710319 0.332091 0.260028 0.617281 0.649868 0.403804 0.010250 -0.910125 -0.709898 -0.076625
ago -1.280062 1.106979 -1.152250 -0.036181 0.161305 -0.243446 -0.920798 0.899813 -0.211659 -0.623554
already 0.140910 1.021962 0.315191 0.147115 -0.347418 0.455617 0.992902 -0.241353 0.544116 -1.004994
equality -0.558392 0.550497 0.967093 -1.034985 -1.573499 -0.388330 -1.293272 -0.012117 0.153670 0.005476
impaired 1.117339 2.037025 2.371035 1.688930 -0.497477 1.349779 0.467519 -0.500251 -0.555131 -0.537125
killing -0.649813 -0.791878 -0.555720 0.723019 0.601187 -0.873657 0.184269 -0.012849 1.422817 1.517977
ranked -0.222013 0.214190 -0.689650 0.791186 0.142588 -1.093028 1.119491 -0.188588 -0.149151 -0.959016
Am 0.380332 2.493013 1.352712 2.115520 -0.251234 1.200297 0.249812 0.043373 0.486810 -0.772939
ar -2.983024 -0.095987 -2.179393 -0.299249 -1.084489 -0.667111 -1.360243 -0.674336 2.014970 0.540342
following 0.880301 -0.009881 -1.419794 -1.680890 3.167643 -0.903129 0.383129 2.102279 -0.093280 -0.784676
passed -0.318389 -0.849526 1.789637 1.475641 -0.776990 -0.913888 0.307562 -0.850403 -1.275698 2.242943
wanted 0.725284 1.873843 0.603111 -1.734837 -1.522282 -0.263647 0.215912 1.688666 0.401459 -0.312315
Nigeria -0.426633 0.756271 0.507451 1.792593 -0.398282 -0.455437 1.665716 1.594110 0.415238 0.061725
bit -0.710324 -0.862932 0.075030 1.385600 -1.293106 -0.441861 0.039501 0.009922 -2.214830 0.134502
patriarchy -1.283095 -0.719735 -0.295122 1.606821 -0.016675 -0.750280 0.538893 -0.673525 -0.005634 -0.681440
reconfiguration -1.021224 -0.573011 -1.411456 -0.155525 0.005853 -1.555305 0.797787 0.413938 -0.180173 -0.197268
thousand -0.656783 -1.503078 -0.412217 0.284057 -0.491572 -0.675052 -0.085551 -0.018291 -1.127837 0.507077
Yeah -0.442026 1.033960 1.058367 1.094581 -0.301867 1.403973 0.575185 -1.081130 0.421737 -1.328016
democracy -0.419643 -1.900267 -0.543137 1.248202 0.992798 0.075957 1.264557 -0.323432 0.214724 0.715421
f -0.099331 0.572205 -0.473341 -0.183466 -1.341253 -0.148030 0.817711 -0.503170 0.187506 -0.026104
first -0.749819 -0.599195 -0.646636 -0.096920 0.212070 -0.188918 0.039160 -0.445974 0.202043 -0.526458
project 0.257936 1.118531 0.172598 3.082444 -0.551575 -0.229852 0.712595 1.510379 -0.062805 1.355709
shit -0.247460 -0.296765 0.324207 0.639033 0.667238 -0.428956 1.028867 0.396680 -0.535409 -0.486363
Hong -1.698212 -1.084195 -1.296609 -0.193196 0.527751 0.115901 -1.604584 -1.167588 0.276062 -0.899115
Lac -0.813688 0.031702 -0.739808 0.387502 1.273131 0.013876 -0.291331 -0.590027 0.709339 -0.737017
weaponless -1.122435 -0.483339 -0.800051 0.291118 0.263616 -1.274413 0.883972 0.368600 -0.093808 -0.739646
Kong -1.233885 -1.696997 -0.790160 -0.305633 0.724193 -0.024068 -1.244455 -1.778016 -0.958732 -0.612360
call 0.185603 0.674509 0.614393 -0.164293 -0.509866 -0.816922 0.085149 1.124537 -1.673750 -1.092712
moral -0.948550 -2.394316 -1.444349 -2.836223 0.759651 -0.646943 -0.603201 -0.835250 -1.104528 -0.271826
reason -1.135119 -1.192500 -1.221643 -0.354406 0.324359 -0.990767 -0.068028 -1.065444 0.490068 0.009031
sexual -0.345560 -0.663304 -0.791438 0.944328 0.294201 -0.388687 -0.113501 -0.061705 1.022431 1.660495
social -0.545426 -0.851390 -0.463564 -0.456922 0.507936 0.442253 0.204817 -1.371575 -0.896731 -1.586591
Laura 0.157976 -0.424448 0.109280 1.395630 0.966141 1.995876 0.366922 -1.069953 -0.315298 -0.467512
anti 0.276145 0.286482 -1.208646 0.439805 0.512780 -0.270768 0.491148 0.971549 0.976321 0.712750
anything -0.855527 0.569906 -0.032313 -0.158123 -0.614103 -0.092267 -0.411951 0.124120 -0.167707 -1.202105
aren -0.441761 0.636202 0.905804 -1.070800 -0.673850 -1.272894 -0.357889 0.856277 0.334868 -0.580887
fact -1.183859 -1.307860 -0.001450 0.045004 -0.194858 -0.161058 -0.179904 -1.008140 -0.588087 -1.248938
look 0.178175 0.492699 -0.571604 0.157952 -1.352563 -0.295979 0.004568 0.463518 0.092777 0.080715
r -1.436897 0.618038 0.281406 -0.328215 -0.976069 -0.260653 -0.491234 -0.432053 0.899218 -0.345834
says -0.806195 0.094726 -0.219082 0.752520 -0.678767 -0.027105 -0.442809 -0.032202 0.298343 -0.113581
seeing -0.327053 -1.104546 1.532206 1.570461 0.801846 0.232788 -1.109516 -0.813563 -0.915970 -1.494778
iconic 1.117519 1.796850 -0.146852 0.444394 1.177668 -0.348215 1.461412 1.789828 0.470259 -0.340273
protest 1.950294 0.864861 -1.622593 -0.366422 0.804767 -0.241258 0.213599 1.787887 1.334329 1.146605
system -1.422633 -1.024121 0.150203 -0.066668 -0.680019 -0.277213 0.325428 -1.512219 -0.469070 -0.886869
Hofstadter -0.472428 0.206336 -0.198203 1.482501 -0.219959 -0.481690 1.057653 0.458301 0.077228 -0.367698
end -0.834203 -1.002336 -1.536600 -0.000186 -0.053527 -1.139254 -0.254691 -0.000958 -0.553072 -0.235992
hard 0.750391 0.649005 0.008083 -0.031242 0.234954 0.148523 0.719844 1.008254 -0.881311 -1.232104
killed -0.195787 -0.823246 1.163917 -0.716330 -0.766754 -0.960143 1.044481 -0.329079 -0.262371 1.368878
paintings -0.760125 0.382104 -0.894806 0.315282 0.275151 -1.073695 1.017762 0.534929 0.415247 -0.896233
photographer -0.260451 -0.477205 -0.709254 -0.444402 0.554325 0.221069 0.398846 -0.729300 -0.383422 -1.159861
portraits -0.585839 -0.779324 -1.551000 -0.558852 0.293347 -0.960035 0.158872 0.890783 -0.255190 -0.047076
recreates -0.182503 0.615444 0.212073 1.172459 -0.336719 -0.472261 0.742709 0.808097 0.152196 0.232449
appealing -0.258017 1.010067 -2.079821 0.237447 2.595328 -1.759721 -0.928503 1.885709 0.333072 0.166705
highligh -0.617835 0.701430 -0.712028 -1.110915 0.053392 -0.501160 0.640509 1.189764 0.463319 -1.640262
problem -0.834882 -0.867657 -0.589622 0.807163 -0.181520 -0.434407 0.160870 -0.389182 -0.870279 -0.311801
views 0.071991 -1.128509 -1.893413 0.026629 1.177989 1.339699 0.328060 -1.419563 1.458033 -0.862004
Both 0.175224 0.831790 0.131106 0.075546 -0.255150 0.197748 -0.638848 -0.663073 -0.146872 -0.763820
means -1.586120 -0.399396 -0.838849 0.468187 -1.295336 -0.494710 -0.485405 -0.328555 0.648980 0.630706
positions 0.090820 1.684460 0.046134 1.010804 0.288226 0.218199 -1.080903 0.379711 0.630923 0.357248
regime -0.962272 -0.797615 -0.194094 -0.823213 0.248030 -0.948558 0.117613 -0.711813 0.652498 0.955832
artists 1.254764 0.360669 -0.348701 1.115022 1.994254 -0.033998 -0.430869 0.900316 -2.130594 -1.835895
crime 0.685968 -0.618257 0.182097 -0.277738 0.050908 -0.275285 0.256871 1.087118 -2.186686 -1.732152
decries -0.044600 1.129024 -0.587537 0.169134 1.720982 0.361469 1.614511 -0.110574 0.671815 -2.383014
actually -0.515153 -0.261487 -0.315909 0.316739 -0.678052 -0.884779 -0.014626 -0.064469 -0.761595 -0.029967
bad 0.097282 -0.248297 -0.520283 0.454034 -0.172083 -0.544474 0.420326 0.110493 -0.887324 -0.590929
class -0.541177 -0.054547 -1.024626 0.166772 0.436573 -0.615611 -0.006537 -0.050568 0.927850 0.636708
hearing -1.512457 -1.065378 -0.601685 1.599632 -0.416480 0.166065 0.635459 -0.992965 -0.298624 -0.301946
misogyny 0.390408 -0.876155 -0.719440 0.132356 1.035465 -0.294553 1.410336 -0.024531 0.163102 -0.812304
poor -0.896290 0.151865 -0.751734 -0.019218 0.553602 -0.813803 -0.398883 -0.041358 1.426828 0.323021
Bobrisky -0.052513 1.966899 -0.887425 -2.166575 -0.892665 1.032523 -1.299635 0.763958 1.403609 -0.399853
Chinese 0.212672 0.259917 -0.408758 1.112108 0.770879 -0.583320 0.476301 0.643663 0.951932 1.059814
anyone -0.325936 0.102677 -0.157516 -0.091373 -0.173680 -0.765341 0.392172 0.375583 -0.137042 0.174981
gotten -1.366462 0.413991 -1.661142 -1.175839 0.711183 1.216232 -0.559632 1.779188 1.489624 -0.066379
off 0.015320 -0.205974 -0.515409 -0.664014 0.027333 -0.102163 0.347809 0.078609 -0.262898 -0.920079
tackle -1.471611 0.066683 0.690795 0.163536 -1.189054 -1.125475 0.281034 -0.155402 -1.688789 -1.780461
try 0.406084 0.650141 -0.492059 0.570156 0.024086 -0.727359 -0.730984 2.010401 -0.746188 -0.028521
weird -1.229101 -1.275670 -2.227178 -0.671405 0.573997 0.474832 -0.732981 -0.901891 1.826764 1.849384
free -0.245968 0.373024 -0.549566 0.221094 -0.222418 -0.505360 -0.166737 0.788637 -0.044368 -0.203328
talked 0.057909 2.474511 -0.705666 -1.233782 0.247068 1.057077 0.445118 1.232116 0.462475 -2.558085
understand -0.822269 0.761829 1.075574 -0.636960 -0.619914 -0.784737 0.835977 0.751715 -0.499487 -1.207042
y -0.795004 0.613983 -0.004530 0.229803 -0.794300 -0.911010 0.411017 -0.116461 1.087947 0.220102
Sorry -0.105601 1.425597 1.290259 -0.831739 -2.050254 -0.823467 -0.258481 0.709224 0.403327 0.039495
efforts -0.853868 0.128430 0.261590 -0.083381 -0.444159 -0.697900 1.386949 0.341084 -1.092830 -1.617184
extremism 0.750380 1.556133 1.305634 1.537849 -0.901494 -0.229154 1.204760 1.003789 -1.303954 -1.074031
knew 0.789671 -0.940576 0.391765 1.737907 0.200275 0.592394 0.988685 -0.081504 -0.348564 -0.150285
number -0.442779 -1.207364 0.892464 0.925946 -1.223560 -0.503937 -0.526172 -0.234648 -2.432071 0.208230
working -0.761626 -0.244869 -1.005529 0.003049 -0.011951 0.680768 0.519864 -0.582525 0.898535 -0.830323
Muslim -0.598515 -0.064458 -0.367408 1.319203 -0.858303 -0.216244 -0.055669 -0.566555 0.042757 0.575326
aging -0.053442 -0.006002 -0.437896 0.592245 0.615497 0.260318 0.654884 0.236431 -0.053867 -0.419382
condemns -0.682066 0.265944 -0.646909 2.120583 0.509734 -0.481493 0.007155 0.289410 1.023318 0.931442
early 0.793159 -0.047712 -0.760121 1.538044 0.468652 1.331613 0.692941 -1.298169 1.157205 -1.391892
praises -0.958060 0.087849 -0.492097 0.867200 0.082190 -0.858575 1.305347 0.261502 0.083213 -0.706084
remember 0.328687 0.485464 0.535631 1.250876 -1.108669 -0.717384 1.153606 1.002115 -0.712426 0.020246
run 0.008907 0.012092 -2.201122 -0.552305 1.560450 -1.260764 -0.546812 0.569117 -0.386386 -0.216502
thank -0.604412 0.619101 0.138628 -3.007772 -0.850523 -1.643076 -0.833189 0.579900 -0.029466 -0.424862
twice 0.522409 -0.261711 2.689126 0.323564 -0.309571 0.374819 -1.535501 -0.000970 -1.011449 -0.540944
Iran 0.840177 0.581065 0.514991 1.103454 0.072615 -0.320997 0.506628 1.574701 -0.056006 0.237645
Is -0.204366 0.033538 -0.025686 0.015060 -0.004936 -0.127811 0.482376 -0.168051 0.060397 -0.819716
Workplace -0.974060 -1.678728 0.423454 -2.140333 -0.334623 0.637418 -0.476202 -2.053001 -0.448107 -0.939193
late 0.778561 1.375752 -1.625834 0.641062 0.813601 -0.748919 -0.309119 1.193699 1.411864 0.833876
part -1.031596 -0.539431 -0.959219 0.152625 -0.256605 -0.872355 0.210541 -0.079800 -0.218118 -0.176065
trying -0.159497 -0.399599 -0.144149 -0.629508 -0.329866 -1.224932 -0.061739 0.547017 -1.107885 -0.044654
Black -0.561769 -0.168925 -0.793072 -0.137971 0.550885 -0.170695 -0.206232 0.110531 -0.232233 -1.069756
each 0.561711 0.189695 -0.918581 -0.003080 0.610228 -1.127901 0.028118 1.242118 1.326759 1.656254
polit -0.532088 2.369772 1.088953 2.465948 -0.182559 0.397024 -1.099619 1.044957 0.471106 0.578610
tell -0.083079 0.678315 -0.289506 -0.502693 -0.794214 -0.582778 -0.174844 1.372743 0.588477 -0.146840
wig 0.307146 0.814271 0.243447 2.686134 -1.197735 1.154449 1.724987 -0.237788 0.218039 0.215321
wish -1.705393 0.423094 0.189236 0.004131 -0.826337 -1.430184 -2.009921 0.161008 -0.605870 -0.063063
Ask 0.158838 -2.225734 -0.921053 -2.000441 1.384920 0.282479 -0.180606 -1.693280 0.012273 -0.884928
RIGHT -0.211462 -0.334752 -2.755258 -0.603955 1.802293 -1.455169 0.879436 0.077492 1.026113 -0.445576
True -0.220837 2.015374 1.747173 0.059611 -1.883974 0.398156 -0.683426 0.126433 -0.334497 -0.750172
better -0.231724 -0.101571 -0.031166 0.125189 -0.529285 -0.217658 0.605466 -0.523730 -0.391892 -0.570806
got -0.263836 0.505872 0.672415 0.419223 -0.520433 0.156306 0.266226 0.116229 -0.769683 -0.725135
identical -1.947099 0.570849 -1.293722 0.613735 0.175386 -1.371155 -0.111525 -0.638101 1.026928 -1.734224
Are -0.939600 1.142997 0.776977 0.327076 -1.625259 -0.635614 -0.083053 -0.819765 0.658774 -0.421587
Majority -1.290050 -0.056033 -0.130668 1.415427 -1.338611 0.193982 0.333907 -0.624609 0.955599 0.540799
dancing -0.865245 -0.843453 0.885039 1.553226 -0.537278 1.580579 -2.132258 -1.595193 -1.121083 -0.985227
extrem -0.219524 1.169616 0.135578 0.062884 -1.212005 -0.598307 -1.140467 -0.524565 0.370533 0.007497
getting -0.963042 -0.652287 -0.667739 0.577310 0.104975 -1.309830 0.219837 -0.142905 0.614707 0.668523
innocent -0.601827 -1.063963 -0.620740 0.887671 0.544391 -1.185808 0.064642 -0.251552 -0.331550 0.232155
namely -1.532929 -0.268610 -1.194286 1.411498 0.689592 -0.752881 0.544365 -0.042500 0.019520 -1.482708
nation 0.466284 -0.659162 -0.723703 -0.314014 1.144951 1.154112 0.571552 0.454725 0.176583 -0.046362
variants -0.489656 0.725758 -0.374644 0.300063 -0.568414 -1.039984 0.126804 -0.198231 0.122785 -0.609822
Classifying -0.360212 1.804138 0.441341 1.300241 -0.107610 0.486579 -0.018867 0.747630 0.473370 -0.177527
For -0.412636 0.431577 -0.469009 -0.319453 0.134517 0.276029 0.029060 -0.187367 0.863336 -0.598040
INACCURATE -0.323022 -0.237027 -1.094657 0.271155 0.963008 -0.611309 1.381077 0.149820 -0.068457 -1.105141
discrimination -0.539629 -0.650737 -0.690715 -0.083922 0.596474 -0.368165 0.783627 -0.614984 0.568016 -0.296417
fans -0.060250 0.112538 1.361437 -0.230813 -0.919643 -1.231519 0.462385 -0.157267 -0.822827 -0.531476
brushing -0.751988 0.027190 -0.373238 0.865327 -0.242688 -0.552416 0.535394 0.117704 -0.369880 -1.121274
folks -0.372509 0.137872 -0.688480 -0.519245 0.056538 -0.499428 -0.385555 0.732441 -0.579331 -0.228135
follow -1.433756 0.461589 -0.492886 -0.087123 -0.817504 -1.426139 -2.707274 0.294145 0.515439 2.229621
hear -0.215108 0.980039 0.117709 0.240008 -0.725213 0.392252 0.674552 0.297733 -0.669924 -1.292192
judge 0.966257 -1.026345 -0.143176 2.609588 0.369726 0.024197 1.233795 0.710278 -2.047203 -0.100657
peoples -1.604896 -0.745553 -0.792854 1.132289 -0.146132 -0.308119 -0.820945 -1.458341 0.237434 1.768659
scroll -0.518537 0.279641 0.673039 0.697001 -0.392934 -0.695948 0.005737 0.277614 -0.720902 -0.954468
thought -0.680881 0.033023 1.062329 0.212198 -0.429014 -0.251460 -0.124461 -0.051064 -1.689478 -1.708869
agree -0.465809 0.811274 0.648269 0.034907 -0.709858 -0.224161 0.476929 -0.309143 0.507884 -1.174298
allowed -1.136619 -0.536064 -1.450288 0.129863 -1.071253 -1.052923 -0.060510 0.246782 0.500997 1.257873
beings -0.179974 -1.608214 -2.293943 -0.062027 2.464992 1.024369 -0.517616 -1.520672 2.476140 0.627124
ones -2.399995 -0.801500 -0.461470 0.042161 -0.983350 -0.986884 -1.561346 -1.325506 0.432293 0.563132
welcome -0.522605 -1.348911 -1.051650 -1.267788 0.918651 1.727773 -0.055627 -2.374603 0.389101 -2.115253
come -0.534080 -0.195555 -0.477736 -1.129258 -0.255959 -0.591618 -0.319167 0.482585 0.067878 -0.288972
different 0.293876 -0.014561 -1.066632 0.107371 0.032340 0.121849 -0.193458 0.166781 -1.022563 -0.731304
energy -1.954108 0.914228 -1.032949 2.408106 -1.471823 0.414962 -1.564125 -0.422518 0.551053 0.340405
others -0.846110 0.065828 -0.467278 0.281762 -0.046849 -0.712951 0.093337 -0.021279 0.387568 0.418813
Bartender 0.306032 -1.712238 -0.176626 -2.775897 -1.032895 -1.243922 1.224577 -0.071611 -0.308523 -0.098261
Bias 0.095295 0.326542 0.487126 -0.684675 -0.228090 1.028042 -0.789334 -0.885930 1.086924 0.322329
May 0.815374 0.210714 -0.969672 -0.619588 1.425376 0.400137 -0.585102 1.037260 0.908788 0.816110
appointed 0.089009 -0.182769 0.271424 0.709156 0.135690 -1.674052 0.611608 1.641715 -2.525135 -0.637063
brown -1.627977 0.624191 -1.176733 0.656935 1.317326 -1.346991 -1.768813 0.748196 2.108105 1.204252
culture 0.062099 -0.292628 -0.165755 1.061213 0.752444 -0.429604 0.045394 0.682775 0.225804 0.766219
story -0.734614 -0.680817 -0.338646 0.550010 0.194261 1.143460 1.569433 -1.573629 0.991603 -0.698385
friends -0.010862 0.377595 -0.795704 -0.689924 1.000752 -0.602633 0.621870 -0.351441 0.595574 -0.736310
gay -0.554279 -0.241338 -0.989952 0.143502 0.148671 -1.070109 -0.776598 0.599293 0.116188 -0.038079
Citing 0.651666 -0.664054 0.145165 1.704661 0.452881 0.358182 0.498662 0.436572 -0.709612 0.068048
World -0.843941 -1.276144 -0.313517 1.045870 -0.747720 0.651293 0.134659 -1.709071 0.575063 1.049030
closer -1.872812 -0.826060 1.538045 -0.100112 -0.778747 -0.338817 0.109857 -2.167472 -0.771812 -2.097770
down 0.936880 1.531647 0.030385 -0.629015 0.036837 -0.114375 0.395431 1.167634 -0.209222 -0.794953
forgive -0.453638 0.331392 -1.981639 0.068991 1.043392 -0.740054 0.029422 0.330327 2.772691 1.095475
permissible -0.948354 0.550455 -0.421773 0.782788 -0.682339 -1.732993 0.889609 0.919163 0.231552 -0.475715
red 0.501228 0.531578 -0.560906 -1.441928 2.545175 0.187402 1.118782 0.820067 1.712424 -1.134260
scholars -1.479612 -0.495285 -1.450323 1.200605 -0.465731 -1.365870 0.167967 -0.209851 0.629479 0.472298
using -0.559677 -1.186698 -0.293535 0.031591 0.149125 -0.799927 0.386242 -0.161837 -0.751589 0.504791
ARMY -0.828729 -0.074298 -1.553523 -2.528259 0.982308 -0.367121 -0.100413 0.697230 1.351044 -1.126329
Christian 0.025303 -1.423520 0.241336 -0.059954 -0.028544 -0.312878 0.109783 -0.554839 -1.118892 0.311331
Christians -0.792500 0.787891 -1.392457 -0.114408 0.227635 -0.355558 -0.884754 1.137805 1.706279 1.047806
Let 0.670176 0.678011 0.084408 0.949295 -0.395664 0.209605 1.430125 -0.369232 0.570370 -1.074852
Men -0.056495 0.614469 0.723852 0.120698 -0.970505 -0.589670 0.470896 -0.651957 0.480699 -0.145491
Qardawi 0.614333 -0.992591 0.662040 1.953654 0.748062 2.263829 1.606662 0.556597 0.948600 1.001253
carpet 0.296364 0.239473 -0.585840 -0.766998 1.822699 -0.028363 1.054046 1.320248 1.087011 -0.254750
cat 0.627399 0.044934 -1.025852 0.101802 2.842260 1.782244 -0.063414 -0.133592 1.655677 0.058307
imposing -0.373988 -0.269515 0.045752 -0.275533 -0.598690 -1.179754 0.918534 0.594788 -0.837975 -1.025493
incubator -1.045952 0.409483 -0.750605 0.325798 -0.140457 -0.284045 1.334730 0.019778 0.226696 -1.838402
lives -0.809339 -0.332023 -0.335006 0.687583 0.343848 0.488546 0.240026 -0.453458 1.455473 0.168371
show -0.318215 0.588557 -0.423160 -0.110343 0.252790 -0.234385 0.160870 0.563816 0.208873 -0.899823
sorta -0.673902 0.107860 -0.280040 1.237040 -0.423510 -0.872364 1.156585 -0.007553 -0.831551 -1.623636
through -0.526809 0.044642 0.025872 -1.145186 0.696072 0.242659 -0.115850 -0.431259 -0.186742 -0.619372
Capturing -1.006644 -0.036130 -0.793858 0.403155 0.469719 -1.157915 0.535613 0.229688 0.418659 -0.708843
Removing -1.689706 0.263245 -1.953381 -0.987176 1.114498 -1.518139 -1.181399 -0.239185 1.020304 -1.718928
act 1.073463 0.298012 0.107813 -0.058313 0.684973 -0.761390 1.444940 1.112755 1.081836 1.069083
common 0.804319 0.100259 0.336011 -0.872160 0.975261 0.886598 1.288990 0.857909 -0.577615 -0.401105
eve -1.123133 -0.203591 0.854964 1.980596 -1.152253 0.321912 0.711552 -0.881887 1.263496 0.999969
future 0.563875 -0.865593 -1.066312 0.945477 1.586926 0.029529 0.521181 0.569238 1.269597 1.107072
point -0.632159 -0.819772 -0.458118 0.023041 0.564510 -0.494303 0.553465 -0.353524 -0.307144 -0.227971
president 0.424358 0.077277 0.372471 -0.498668 -0.426716 -0.729879 0.783860 -0.346002 -0.853396 -1.174671
spend -1.520615 0.168501 0.554312 0.068390 -0.650269 -1.074628 -0.407332 0.000678 -0.446051 -0.176350
told 0.813122 0.556478 -0.296371 0.264986 -0.314423 -0.876333 0.200937 1.354648 -1.230407 -0.188754
use -0.157635 0.039465 -0.490706 -0.636593 0.230770 -0.943951 0.122918 0.640532 -0.201611 -0.649565
citizens -0.349695 -0.052905 -1.181867 -0.505014 1.127359 0.214133 0.003556 0.621719 0.353840 -0.668378
religions -0.606568 0.485084 1.862895 1.020976 -1.311720 -0.727278 -0.274995 -0.844284 0.793784 2.227563
sometimes -1.131298 0.098138 1.881478 -1.081349 -1.474274 0.144304 0.399793 -1.637971 0.159997 -1.048845
tweets 1.007433 0.531538 -1.122018 -1.229806 0.370844 0.644418 1.100578 0.736113 0.980863 -0.566834
wake -1.412211 -2.166056 -0.246333 -0.735597 0.353427 -0.134363 0.061242 -1.813341 -0.451967 -0.545280
warning 0.452282 -0.159575 -0.110250 1.996520 1.400395 0.524545 0.845047 0.880785 2.051868 0.059144
Women 0.144157 1.122774 -0.318823 -0.364343 0.046132 0.130409 -0.023446 0.408037 0.956007 -0.810190
WomensEqualityDay 0.443778 2.352153 1.407826 0.538603 -1.707049 1.060653 -0.150755 0.740989 0.515814 -0.097192
before -0.175060 0.205481 0.029792 0.580935 0.451431 -0.089296 -0.270629 0.411965 0.901139 0.632819
child -0.277241 -1.198148 -0.763606 -0.670914 0.025981 0.581310 0.506089 -0.816939 0.575171 -0.377077
discussion -0.258340 0.532721 -0.455151 0.233409 1.215926 -1.701188 -0.125491 1.390474 -0.270431 -1.011367
everybody 0.564880 -1.167090 -0.352494 -0.295545 1.461991 0.353803 1.802057 -0.991567 -0.328236 -2.227643
feelings 0.525916 0.696298 -1.599963 -1.102254 -0.377152 0.725916 -2.111847 0.565577 0.927406 0.646284
issue -1.402710 -1.014869 -0.502339 0.561203 0.318157 0.074053 0.187259 -1.150490 1.316582 0.312944
loited -0.161420 0.143475 0.303401 -0.019196 -0.829380 0.180310 0.644989 -0.137094 0.453609 1.433254
oppress -0.235126 0.555310 -0.480044 -0.864311 -0.064273 -0.080084 -0.465382 0.485108 -0.054720 -1.013599
particularly 0.693335 -0.014039 -0.269859 -1.723973 0.160070 -0.644140 -0.056424 1.067172 -1.804778 -1.240190
chief 0.835148 -0.630151 0.069804 1.739734 1.623232 1.986764 0.331130 -0.406642 1.520245 0.423223
didn 0.249242 0.783563 2.230541 -0.105452 -1.211663 -0.439225 0.600414 0.704207 -1.134962 -0.558140
else 0.110188 -0.141149 -0.502290 0.378922 0.273628 -0.336857 0.586952 -0.069754 1.472481 0.899624
female 0.071748 0.017858 -0.291456 0.178013 0.411294 0.437063 1.148582 0.196235 0.847981 -0.132996
head -2.183812 -1.122890 -1.027538 -1.570481 -0.423698 -1.237979 -0.444133 -1.358856 1.554320 1.198084
long -0.395246 -0.832421 0.172422 0.483093 -0.991139 -0.934037 0.109232 -0.123543 -1.222943 0.153376
whites -1.439608 -0.370265 -0.448805 -0.394034 -0.068709 -0.601484 -0.625471 -1.130994 0.676275 -0.219965
President -0.420530 0.463765 -0.495537 -0.416804 -0.504308 0.867307 0.457951 -0.278492 0.780017 -1.056251
Screw -0.351706 0.140260 -0.928604 -0.272438 0.877477 -0.329564 1.660837 0.072215 -0.221656 -2.211513
ageing -0.324104 -1.266392 0.638368 -0.267537 0.639277 0.359456 2.132436 -1.033759 0.081414 -0.360235
brutality 0.044204 1.070951 -2.392909 -0.508768 2.536286 -0.192161 0.228349 0.017146 2.702979 0.980398
pride -0.599924 -0.253377 -1.045514 0.092910 -0.426484 0.228311 0.300032 -0.477291 -0.037931 -0.351289
yourself -0.395225 0.320805 -0.200968 0.438711 -0.612678 -0.343684 0.182815 0.435800 0.085064 0.240799
Our 0.012151 0.155760 -0.629070 -1.076143 0.311811 -0.985406 -1.354666 -0.398930 0.732425 0.093491
criminal -0.015059 -0.325483 -0.551039 -1.794159 -0.281018 -0.583048 -0.347038 -0.239390 0.577047 0.470200
erupt -0.988534 0.604495 -0.106224 0.750823 -1.138585 -1.607958 0.289344 0.554819 -0.526330 -0.949035
erupts -0.633681 0.423160 -0.639690 1.384526 0.095746 -1.115024 1.286620 0.309371 0.613765 -0.482043
interviewing -1.475726 -0.589738 -1.385890 0.385167 -0.217413 -1.104565 -1.025359 1.377147 -1.493680 -0.972622
issues -1.060251 -0.813573 -0.928576 -0.361632 0.280839 -0.583330 -0.267589 -0.191487 -0.473720 -0.106155
made -0.411785 0.284052 -0.180056 0.763128 -0.184002 -0.002295 0.029572 0.270854 -0.371907 -0.640253
meeting -0.628246 0.716471 -0.165870 -1.823729 -1.488774 -0.948713 -0.833288 0.388621 1.168923 -0.989012
voice -0.521042 -0.122309 -0.359746 -0.140924 -0.607075 -1.404586 -0.348638 0.586276 -0.134860 0.683071
votes -0.919466 -0.974800 -2.747427 0.476232 1.097234 -1.149911 -0.463042 -1.373746 1.996602 1.331169
Don -0.716942 1.000364 0.857047 -0.063923 -1.136332 -0.418048 0.267960 0.066494 0.013735 -0.828683
Who -0.750979 0.379065 0.242883 0.377654 0.455370 0.357967 0.416604 -0.453073 0.238882 -1.307919
called 0.227802 -0.097561 -0.250581 0.959796 -0.123141 -0.268778 0.547621 -0.095364 -0.807420 -0.310334
imagine 0.558865 0.157783 -0.416282 1.652264 -0.438840 -1.059474 1.634238 1.412742 0.973868 1.789502
knows 0.253198 -0.691291 -0.984327 -0.246191 1.821419 0.471869 1.033465 -0.789402 -0.459848 -0.878620
millennia -2.920937 -0.878409 0.183091 0.264037 -0.125153 -0.237668 -0.642643 -1.002669 -0.516195 -0.811316
million 0.786175 -0.000765 0.498487 2.030559 -1.190654 -1.159237 0.221188 0.426298 0.510599 2.615915
sis -0.177289 0.395737 0.626440 0.025112 0.735046 1.879794 -0.474219 -1.578880 0.591520 -1.067650
speech -0.935214 -0.574406 0.169568 1.833468 -1.050709 -0.569754 -0.652924 -0.144480 -0.425816 0.436457
true 0.201802 -0.228383 -0.231421 0.282958 -0.418794 0.548782 0.686553 -0.275923 -0.630089 -0.630418
ARMYs -0.956747 0.715560 -1.011388 0.591664 -0.569493 -1.257789 -2.096586 1.298461 1.070891 1.126955
Kashmiri -1.316481 0.179977 -0.927699 -0.502992 -0.164927 -0.631910 -0.987784 -0.521721 0.960308 0.479618
colour -0.586242 -1.411473 -0.608132 2.019921 0.829432 -0.681882 1.419688 -0.959122 -0.325073 1.180850
disturbing 0.675149 -1.319791 -1.599543 -0.436000 2.189018 0.097898 1.246836 -0.615456 -0.128789 -0.421796
kids -0.560457 0.187409 -1.025365 -1.008231 -0.273516 -0.936277 -0.567140 0.464796 -0.459284 -0.847178
movement -0.289456 -0.382939 -0.868740 -1.482228 0.109475 -0.077395 -0.581209 -0.259296 -0.902964 -1.226210
ok -0.228336 0.535143 0.307704 0.521065 -0.799897 -0.289647 0.684868 0.150143 -0.375319 -0.767311
state -1.216798 -1.004775 -0.336462 0.392470 -0.059939 -0.520734 -0.198724 -1.007851 -0.300007 0.041866
Islamophobes -0.715096 1.377552 0.822475 -0.481057 -1.156771 -1.079109 -0.907760 0.849814 -1.067299 -0.567705
Israel -0.258302 -0.192210 -0.868904 1.187415 -0.372339 -0.084214 0.398029 -0.561535 -0.000575 -0.275552
ModiHitler 0.753057 0.460106 -0.237098 0.866991 1.022618 0.677232 1.588462 -0.729200 0.126520 -1.213773
StraightPrideParade -0.228807 0.322124 0.019930 -0.618698 -0.192350 1.425515 0.488861 -1.180897 0.971085 -1.070831
fake 0.225955 -0.088993 0.628054 0.267257 -0.419250 -0.055755 -0.050479 -0.150872 -1.233729 -0.310078
fandom 0.229321 -0.328245 -1.067612 1.118549 1.057681 0.375943 0.479762 0.184946 -1.181998 -0.390291
ideology 0.357683 -1.052079 0.189584 0.241197 -0.220969 0.306750 2.155975 -0.848586 -0.097145 -0.173948
immoral 0.118259 -2.569463 -0.733253 1.098484 1.489499 -0.866416 1.448700 -0.543843 -1.095387 0.894389
live -0.191684 -0.020747 -0.404900 -0.437968 0.464501 -0.784991 0.337211 0.461360 -0.300022 -0.303355
sorry 0.770355 -0.009731 0.604931 1.631924 0.347816 0.117752 1.963037 -0.680070 -0.797809 -1.369346
systems -1.658234 -1.274866 -1.122585 -0.489194 -0.782078 0.067012 -2.224014 0.719036 -1.188554 0.716071
ya -1.659666 2.077668 1.652878 -1.286811 -1.757839 0.278781 -1.089105 0.287389 -0.545335 -1.419653
AmazonRainforest -0.549294 -0.199850 -0.594912 1.111586 -0.292409 -0.841765 1.322987 -0.149377 -0.229115 -1.216192
MaunaKea -0.650500 0.235946 -0.459964 0.750720 -0.399954 0.417759 0.659066 -0.283546 0.765781 -0.222898
Oxygen -0.577719 -0.324150 -0.564350 0.056858 -0.296130 -0.009816 0.330156 -0.686541 0.578384 0.307987
White -1.467620 0.597480 0.108391 -0.384383 -0.945560 -0.113733 -1.606399 -0.421662 -0.445833 -0.649452
around -0.292323 0.017730 -0.179495 -0.373329 0.112604 -0.643120 -0.087203 0.276929 0.075721 -0.196044
arreste -1.014970 -0.255594 -0.223214 0.996378 -0.763614 1.370017 0.379323 -1.176321 1.117676 0.252143
male 0.598686 -0.020129 -0.753801 1.322083 0.770672 -0.107599 0.695180 0.562761 0.121683 0.001012
often -0.625484 0.271814 0.527950 -0.420543 -1.313728 -0.244961 -0.677496 -0.457189 0.289165 0.411426
referendum 0.327928 1.222248 -1.345216 -1.356398 1.529156 -0.415861 -1.100756 1.333076 1.512262 0.832207
result -1.486967 -0.135539 -0.064086 -0.300278 -0.749459 0.583603 -1.893670 -0.641588 -0.184800 -1.462695
settle -0.566885 -0.098583 -0.508843 0.683164 -0.005612 -1.376726 1.382943 0.222458 -0.307554 -1.586431
utterly -1.037924 0.705954 -1.398837 -0.269854 -0.639016 -0.389855 1.583374 0.057717 1.190850 -1.005128
Bolsonaro 1.332706 -0.932262 0.016486 0.910204 0.871507 -0.953672 2.385034 0.192166 0.613495 2.002322
abhorrent -1.003050 -0.285236 -1.028205 0.323334 0.024550 -0.879375 1.144770 0.012764 0.134417 -0.663867
keeps -0.905994 0.366280 -0.162138 -0.860648 0.534529 -0.720647 -1.366899 0.444673 -0.240223 -0.857634
reminder -0.263118 0.414030 -0.070013 2.124013 0.873581 0.223676 -0.321848 0.729568 -0.694439 -1.377509
repeatedly -0.597369 1.587550 1.889613 0.609498 -1.189451 2.103154 -0.546306 1.526792 0.138377 -0.356830
strategy -0.855923 -0.194460 -0.867484 2.216899 0.057813 -1.514448 0.577836 1.345789 0.430184 0.905569
themselves 0.093828 0.995973 0.370234 0.929347 -1.660574 -1.547928 -0.527236 0.710500 0.689844 1.571670
Also -0.356728 0.401298 0.142977 0.669093 -0.281309 -0.367443 -0.060629 -0.463825 0.462422 0.167915
Drop -1.410662 0.334998 0.310261 -0.610396 -1.102010 1.445410 -0.344008 -2.366682 1.507273 -1.144137
developing -0.855070 -1.194439 -0.806516 -0.468478 1.106550 0.183137 -0.544259 -0.995968 -0.874982 -1.725719
dividing 1.911239 -0.301871 -0.009150 -0.387572 1.558987 2.002119 0.774066 0.826322 -0.649050 0.587616
indigenous -0.769940 0.857091 -1.237701 -1.662814 0.666986 -0.531819 -1.463690 1.436403 0.206592 0.362293
B 1.056168 -0.359947 1.307745 1.967385 -0.225655 0.175464 1.920263 0.006315 0.846682 0.843949
NEW -1.230103 -0.848037 -0.449726 -0.897471 -0.337609 -0.809921 1.513984 -0.953744 -0.048085 -2.076938
ObamaOutdidTrump -0.455075 -0.798825 -1.293891 0.258918 1.592025 -0.366247 -0.065361 0.095038 0.363841 -0.111445
Today -0.965772 -0.127616 -0.352975 -0.821854 -0.015374 1.074341 -0.080497 -1.526201 0.753934 -1.509012
Yes -0.902053 0.363521 0.131892 0.831139 -0.994466 0.446692 0.086051 -0.525326 0.205565 -0.484841
best -0.781838 -0.991558 -1.005263 -0.163537 0.725298 -0.433110 -0.726738 -0.694200 0.048061 0.035772
cis -0.716747 0.637034 -0.165912 1.526141 0.477177 0.194068 -0.073241 -0.060372 1.505940 0.625560
eradicate -0.012296 -0.836379 0.132005 1.732326 0.072803 -1.289854 0.408022 1.484360 -1.621337 1.028791
powerful 0.858980 -1.083592 -0.814020 1.061948 1.336108 -1.309165 -0.315733 1.101193 -0.758102 2.052399
behalf -0.326238 -0.469052 -0.288821 0.594546 -0.019440 -0.266876 2.587795 -0.841102 -0.173271 -1.976947
controversies 0.314434 -0.038033 -0.195774 0.241614 0.485727 0.203571 0.805949 0.497131 -0.113176 0.122616
danger 0.199429 0.315744 0.588923 2.379080 -0.494171 -1.056386 0.738490 1.208402 -1.092679 0.672263
dual -0.797801 0.306128 -0.773952 0.981167 -0.028270 -1.005030 0.843427 0.913694 0.378722 -0.550629
https -0.381858 -0.234330 0.497422 1.219809 -1.219083 0.143419 0.559522 -0.603491 0.194052 0.428112
poisoning 0.130942 -0.874035 -2.513391 -0.101931 1.965446 1.725217 0.269490 0.525232 1.985598 0.639174
police -0.504647 -0.950090 -0.210711 -0.053307 0.254375 -0.836060 -0.347059 -0.341652 -0.180258 0.291356
scandals -0.916075 -0.122548 -0.738167 0.466495 0.120496 -0.900255 1.080896 0.291762 0.077520 -0.290326
separatism 0.099458 -0.821942 0.208399 0.870059 -0.036363 -1.365900 0.435017 1.268418 -1.455921 0.659544
tweet 0.330230 -0.127899 0.502206 -0.503018 0.803160 -0.345669 1.246545 0.197092 -0.791095 -1.171324
Discrimination -1.376531 -1.876151 0.139435 -0.720360 0.439734 0.265193 1.037893 -1.872482 0.808448 -0.048574
G 0.434574 -2.147600 -1.038574 0.747508 1.841269 0.188281 1.794503 -0.990778 -0.729228 -1.566626
U -1.076148 -0.841589 -0.265557 -0.138578 -0.806583 1.061344 -0.956605 -0.900868 -1.077036 -1.020408
children -0.258161 -0.434620 -0.965016 -0.175243 0.753049 0.628614 0.502125 -0.384924 1.046355 -0.266270
classic 0.567650 1.052688 -2.284805 -0.758553 1.688707 -1.002266 -1.862239 2.229470 0.206625 0.450435
give 0.063767 0.100810 0.366059 -0.465905 -0.733416 -0.636585 0.450200 0.733148 -0.556695 -0.499168
im -0.269014 0.391202 0.288461 0.488110 -0.190352 -0.278744 0.428819 0.232851 0.156000 0.196080
middle 0.534085 -0.821452 -0.932111 -1.734097 1.172433 -0.046112 0.559771 0.013205 -0.350234 -0.696685
student 1.296818 0.367203 0.433170 1.874955 0.589429 2.271052 0.949057 0.159824 0.623988 -0.364728
twitter 0.432212 -0.207741 0.038601 -0.157873 1.041728 0.359334 0.407206 -0.623801 0.044310 -1.015810
yet 0.048935 -0.119572 0.506146 0.861488 -0.214455 -0.435267 0.751002 0.343965 -0.144097 0.342499
Netanyahu 0.845240 0.045018 -0.214429 0.838726 1.046038 0.641899 1.263254 0.777343 0.867892 -0.126002
One -0.692379 -0.010023 -0.229353 0.204518 0.456284 1.146452 0.388710 -1.083023 0.451390 -1.039810
Sh -1.564426 0.043879 0.275087 -0.364609 -0.712498 0.349884 1.508270 -0.500573 0.311154 -2.212659
Wants 0.356180 0.727419 0.363053 -1.305547 0.107779 1.220896 0.596097 -2.324504 -0.136637 -2.782679
both -0.249622 0.274130 -0.195374 0.141825 -0.111763 -0.183695 -0.333200 -0.067563 0.105885 0.225339
decades -0.201143 -0.616677 -0.675698 -0.764373 1.473921 -0.869496 -0.119531 0.244552 -0.237058 -0.436274
dismantle -2.216193 0.274055 -0.379883 -0.209832 -1.813630 -0.307134 -0.510448 0.888601 -0.602993 -0.977793
majority -1.232663 -1.346725 -1.163765 -0.064027 0.460902 -0.549250 0.004744 -0.948645 0.021292 -0.292347
oppressors -0.160478 0.142870 -0.540297 -1.614691 -0.095120 -0.662126 0.352047 0.173034 0.726172 0.090996
pronounced 0.162152 1.550313 0.419687 -1.658829 -1.226550 -0.720491 -0.757072 0.838287 -1.447938 -1.559840
rig 0.452410 1.248634 -1.138978 -0.361381 0.186774 -0.459780 0.088362 0.775887 2.367836 0.487014
sex -0.399996 -0.277041 -0.012715 -0.691622 -0.162167 -0.952964 0.204544 0.292670 -0.288699 -0.039427
Good 0.076575 0.989366 -0.218895 -1.243959 -0.425573 0.551487 -0.183616 -0.269893 0.999036 -0.866479
animals -0.401756 0.504892 0.251883 -0.276016 -1.136243 -0.547758 -0.807618 1.184527 -2.408725 -0.698198
discouraging -0.514526 0.205172 0.195104 -2.508494 0.319268 0.574504 -0.321595 -1.935013 -0.019565 -1.937210
keep -0.402004 0.517087 0.013871 -0.261803 -0.711167 -1.081325 -0.241084 0.560224 -0.013346 0.445659
males 1.114888 0.507778 -1.026217 0.799314 0.691211 -0.962004 -0.199766 0.479461 1.440537 0.944884
octopus -0.687348 0.317347 -0.949990 -0.467596 -0.375552 -0.736433 1.173036 0.443304 0.692380 -0.756252
oppressions -1.242142 -0.100549 -0.584821 1.249320 -0.342122 -1.140305 0.970418 0.076644 0.183453 -0.879024
stopped -0.629040 -0.552227 -0.533446 1.458998 1.102462 -0.570566 -0.645108 0.036253 0.107216 0.951777
tentacles -0.205137 0.717980 -0.759121 -0.244264 -0.697564 -1.449554 0.435641 0.482434 0.303223 -0.089724
until -0.640966 0.007666 -0.116863 -0.971433 -0.122302 -0.098079 -0.474459 -0.362837 -0.103932 -1.239273
wh -1.319004 0.572048 -0.130859 -0.670190 -0.732026 -0.610508 -0.777921 0.116896 1.155660 -0.567954
yo -0.095014 -0.755083 -0.239364 1.699917 -0.794048 1.059393 0.718220 -0.873977 -0.512466 -0.017438
Election -1.680038 -0.264912 0.964665 -1.831456 -2.997299 -0.000040 -0.124869 -0.590429 0.513148 -0.289493
Having 1.062246 1.381553 0.876333 0.188959 -0.237108 -0.335127 1.134846 1.557836 -0.655163 -1.327574
Ms 0.486916 0.155817 -0.714557 0.297812 0.309697 -0.799442 -0.415344 0.410582 1.619277 1.955459
again -0.386504 0.188189 -0.015517 0.378690 0.005102 0.295509 0.181874 -0.030620 0.416474 -0.078318
bl -0.727315 0.960431 1.448509 1.027479 -0.806609 2.072074 -0.538576 0.342817 1.314003 0.110263
countries -0.875607 -0.247843 -0.543077 -0.101834 -0.344243 -0.807676 -0.617776 -0.292631 0.300223 0.619587
enough -0.941895 0.144810 -0.445839 0.218000 -1.078413 -0.094327 0.187899 -0.361684 -0.577215 -0.458441
focus 0.752391 -0.831303 -0.699043 -0.663388 1.027745 -0.506028 1.621987 0.762575 -0.459443 -0.640073
having -0.561997 -0.641226 -0.423491 0.267162 -0.248011 -0.851517 -0.116007 0.222200 -0.782175 0.188263
important 0.039629 -0.848335 -0.923722 -0.061164 -0.510910 0.108299 0.214897 -0.488705 -0.332270 -0.223162
proud -0.617827 -0.962868 -0.908207 -1.091770 -0.023207 -1.513675 0.309566 -0.217998 0.002280 0.127928
realise -0.551401 0.310464 0.011878 0.247491 0.768733 -0.303322 -1.410299 1.351855 -1.491989 -1.930580
school 0.781400 -0.458914 -0.376510 -1.686129 -0.131972 -0.221965 0.645347 0.553619 -0.705909 -0.278559
taken -0.177839 -1.250327 -0.488946 0.913189 -0.153140 1.483671 -0.699468 -0.553724 -1.330379 -0.750911
Maybe -0.606058 0.928124 0.893963 -0.503664 -0.779999 -0.067669 -0.379583 -0.670420 0.381617 -1.178525
Me 0.612273 0.289884 -0.137935 1.206373 0.812443 1.196406 1.268412 0.246758 1.400851 -0.211179
Things -0.916696 -0.561257 -0.436292 1.983999 -0.544810 -1.215376 0.403719 -1.331251 -0.564571 -1.141274
between 0.285577 -1.118783 -0.419360 -0.692360 -0.088463 -1.396214 -0.486250 0.339273 -0.914270 0.729341
finally -0.253057 1.181706 0.747272 -1.284120 -0.247732 -0.024769 -0.220076 -0.473071 -0.143663 -2.293712
mostly -0.592849 1.968750 -0.937195 -0.278360 -0.295180 0.931837 -1.165978 -0.138356 0.812399 -1.475858
rant 1.249719 0.383506 -1.101272 0.243223 1.210047 -1.060482 1.464394 1.749597 0.334609 -0.494968
seen -1.134136 0.561301 0.882174 -0.343210 0.608373 0.523997 -0.435476 -0.711099 0.339834 -0.754559
God -0.157909 -0.032584 0.166238 0.442996 -0.052420 0.217761 -0.033488 -0.418374 -0.438410 -1.181457
Joe 1.491272 -0.186885 -0.607696 -0.190928 0.245534 1.077781 1.461278 -0.385513 -0.189187 -1.191121
Maduro 0.786392 -0.327759 0.904206 0.040251 0.970871 -0.142362 0.020626 0.320387 -0.408725 0.414386
NOTHING -2.050249 0.654655 0.657052 -1.257375 -1.403540 -0.653877 -1.207726 -0.541991 0.375529 -1.841763
accounts 0.478901 1.402618 -0.037441 0.719939 -0.006291 -0.655613 0.502633 0.294452 1.289536 2.101001
battling 0.351313 0.478561 1.681995 0.825741 -1.106407 -1.277019 0.210259 1.138499 -1.036406 -0.214644
cool 1.683766 0.174048 0.698610 0.834931 0.512166 0.052391 2.055456 0.801637 0.340209 0.324679
dollars 1.596245 0.199201 -0.005404 0.562482 -1.552467 -0.202844 0.269931 0.156042 1.012750 2.171707
folk -0.743471 -0.061365 -1.378130 1.412099 1.553810 0.173274 -0.038533 0.562387 2.424009 1.357258
leaders 0.195578 -0.626894 -0.296299 0.871034 -0.503936 -1.006069 0.568397 -0.077922 -0.610546 0.670505
less 0.285275 0.503309 0.303486 -0.113021 0.210063 0.050822 -0.036380 0.233788 -0.209044 -0.241703
literally -0.460773 -0.068952 -0.223941 0.718512 -0.746589 -0.835338 0.160250 -0.226200 -0.359607 0.253172
military 0.706703 -0.245153 -0.851784 1.753601 0.202094 -0.854668 0.046288 0.510632 0.443916 1.281417
money 0.066502 -0.041682 -0.378486 -0.009669 0.211675 -0.254425 0.203440 0.044267 0.023537 -0.130201
speaking 0.695066 0.002334 -1.475583 -0.177957 0.625131 -0.902423 -0.260727 0.135171 0.378855 1.251089
workplace -1.054897 -0.085955 -1.142428 -0.769258 0.679836 -0.357425 -0.414299 -0.130969 0.517824 -0.434133
youth -0.315474 -0.028056 -0.212522 -0.202956 -0.687257 -1.219664 0.011360 -0.021316 0.420713 0.499426
Kash -0.775993 -0.730451 -0.144609 -2.374151 -0.941586 -1.161055 -2.002172 -0.120935 -0.840073 -0.489822
excuse 0.772482 -0.730799 -1.486014 1.622818 0.683585 -0.812045 0.600661 0.464601 1.747174 1.642194
guys -0.785005 0.759717 0.052078 0.289211 -0.683320 -0.771535 -0.790681 -0.247739 0.270230 -0.084422
idea -1.220922 -0.939721 0.039757 0.091042 -0.264586 -0.605943 -0.183739 -0.797337 -0.381440 -0.706818
sing -0.684265 -0.247128 -1.707185 -1.025837 -0.101521 -0.868725 -0.224714 1.456786 -0.542935 0.228768
workers -0.298676 0.166868 -0.185746 -0.502931 -0.627397 -0.977873 -0.289447 0.565207 0.097232 0.341064
worth 0.724822 0.098773 -0.271869 1.478763 -0.331829 -1.256104 -0.953612 0.857661 0.249249 2.721691
yea 0.364160 -0.380511 -0.747366 1.175141 -0.538036 -0.262580 1.278354 -0.527294 2.022043 1.190073
Family 0.876888 1.292182 -0.184843 2.423160 0.585233 1.072915 0.053040 1.542407 0.775985 0.542793
Look 0.415864 -0.272002 -1.299636 0.604991 0.715139 -1.447597 0.138140 -0.140652 1.369519 1.053756
Mullah -0.521167 -0.356826 -0.523390 -0.719930 -0.016424 -1.087660 0.298104 0.033005 0.492781 0.095793
S -1.440282 -0.288843 -0.317768 -0.142213 -0.785662 0.886925 -0.216381 -1.246666 0.958825 -0.449888
behind -0.048649 0.190244 0.100121 -0.209565 0.438145 -0.070851 0.192392 -0.256952 0.784998 -0.592939
bullshit 1.484533 1.109123 1.496096 -0.361534 -0.756750 -1.002329 0.173580 1.305143 -1.266530 -0.585090
comparing 0.146913 -1.027709 -1.735316 1.231518 2.129495 -0.222246 1.457681 -0.164034 1.921885 -0.270907
negotiated -0.830258 -0.336283 -1.017041 -0.642878 -0.008806 -1.232466 0.163931 0.244493 0.333753 -0.252276
retweet 0.416998 -0.258842 -1.600024 -0.087382 1.319353 -0.606265 1.140356 -0.401458 2.877100 1.437614
slander -0.514249 -1.183395 -0.253077 -0.505069 -0.059112 -0.144343 -0.926905 -0.679645 -0.299167 0.136877
used 0.219618 0.560966 0.101615 -0.565218 -0.211649 -0.662582 0.770707 0.788256 -0.664022 -1.005716
b -0.543149 0.347406 -0.127698 -0.027303 -0.653192 -0.138391 0.356559 0.155162 0.106118 -0.259554
city -0.396344 -1.596730 -1.414253 0.004719 0.493835 0.075361 -0.283296 -1.819611 -0.590329 -0.392255
denying -0.258811 -0.769893 -0.878737 0.888389 0.853101 -2.476733 -0.698905 -0.001074 1.094626 1.344176
fucking 0.093420 -0.342151 -0.361544 0.862609 -0.152399 -0.252227 0.091195 0.290598 -0.828544 0.047418
girl -0.152105 -0.725385 0.150383 1.317818 0.162381 -0.182272 -0.162613 0.186297 -1.390466 -0.117191
minute -2.142629 0.415439 -1.415617 -0.361046 0.356811 -0.259690 -0.588869 -0.381320 2.828131 0.111886
turn -0.208781 -0.491973 -0.358613 -0.480064 -0.749786 0.628962 -0.684924 -0.154233 -0.928380 -1.067477
younger -0.077135 0.346106 -0.869244 -0.060114 0.173847 -0.164967 -0.209063 -0.326393 0.662842 0.225414
Doll -0.425985 -0.954207 -0.453906 -0.460069 -0.072296 -0.515274 -0.551930 -0.187105 -0.287814 0.000339
Indefinitely -1.207102 0.071180 -1.002371 0.399588 -0.050820 -0.800225 0.727028 -0.247549 0.649595 -1.192017
Megan -0.701571 0.309498 -0.739551 0.451383 0.116252 -1.167022 0.321925 0.477217 0.139685 -0.582239
Most -1.485608 -0.066279 -0.552616 -0.942629 -0.975253 -0.120317 -1.084563 -0.818356 0.389960 -0.722579
change -0.884171 -0.073213 -0.063376 -0.666257 -0.459794 -0.320858 0.129584 0.019239 -0.292068 -0.913766
fascist -0.612981 -0.731600 -0.017239 1.951605 -0.469947 -0.242833 -0.007726 -1.246473 -0.259636 0.600943
full -0.443709 -0.512560 -0.433126 -1.078391 -0.213353 0.399358 -0.490442 -0.524274 -1.020643 -1.177694
including 0.002553 0.585639 0.283133 1.472961 -0.295571 0.156834 -0.306075 0.569265 1.056460 1.388645
narrative -1.155237 -0.410285 0.670446 0.483020 0.524058 1.075877 0.100500 -0.993282 -0.138803 -1.037802
screaming 0.585625 0.615951 -0.117774 2.775828 1.006499 1.168267 1.500656 0.951419 0.148746 -0.648917
LGBTQ -0.362777 -0.522934 -0.920835 -0.563454 -0.758769 0.047908 0.295296 -0.774531 0.484334 0.075105
Pakistani -1.247112 -0.954794 -1.513560 0.757427 1.125834 0.179935 -1.078796 -0.317714 1.116935 1.310729
Quick -0.970463 0.919216 1.181697 2.515176 -0.052641 0.153613 0.059673 0.302984 -0.950855 -1.351326
party 0.209538 -0.775983 -0.130312 0.724852 0.961785 0.925966 0.898992 -0.458427 -1.196715 -1.348039
please -1.094906 0.541693 0.471811 0.030865 -0.548125 -0.363162 -0.439046 -0.416349 0.468775 -0.029974
supp -0.369399 -0.056270 -1.621190 1.695326 1.188464 -0.423805 0.830063 0.342159 2.069596 0.973232
throughout -0.326711 -1.443646 -0.777431 -1.568780 1.774281 -1.190877 -0.305478 0.543361 -1.245855 -0.738162
whose 0.952246 -0.649762 -0.281000 0.889507 1.042293 -0.009165 -0.020479 0.330993 -0.848293 1.019148
Join -0.878309 -0.410573 -0.244009 -0.846045 -0.550021 -0.424358 0.241260 -1.208666 0.598839 -1.073624
affect 0.995221 1.600291 1.176016 -1.299827 -1.095484 -0.375632 0.477192 1.466311 -0.339274 0.077383
becoming 0.210324 0.265496 -0.937140 -0.608180 0.606557 -0.435163 -1.213813 0.343307 0.700065 0.680979
deportation -0.768147 -0.261489 -0.689621 1.174360 0.220144 -0.738328 0.426301 0.170361 0.131634 0.031326
dirtbag -0.638140 -0.211281 -0.133867 0.413267 0.400680 -1.016929 0.872190 0.320133 -0.487953 -0.852316
drop 0.121790 -0.360347 -0.623027 -0.451423 -0.697771 -0.811503 1.315129 1.003796 0.621977 0.947019
help -0.427361 0.320249 0.190445 -0.578676 -0.414130 -0.644170 -0.963434 0.847086 -0.726317 -0.230379
injunction -1.229118 0.432562 -0.526880 0.065608 -0.134432 -0.479460 0.516144 -0.177098 0.683514 -1.005948
instead -1.153314 -0.771433 -0.340004 0.368981 -0.894266 -0.855460 -0.001051 -0.429488 -0.209601 0.412272
lie -1.087790 0.809108 1.189447 0.472984 1.283561 -1.566113 0.856792 0.426024 0.292213 -0.912373
might 0.091392 0.937406 1.519054 -0.199000 -0.701419 -0.149444 0.142547 0.275936 -0.811842 -0.791704
picture -0.922137 -0.421007 0.264942 0.123399 -2.457242 -0.114970 -0.597682 -0.233134 -1.463886 -0.188668
usually 1.314817 -0.559988 0.583776 0.679253 -0.065779 0.046006 1.571377 0.198869 -1.335913 -0.437264
Hitler -0.582262 1.178746 -0.573701 -0.424503 0.214577 0.242046 -0.493741 -0.529231 1.845109 -0.300103
erience 1.000691 0.197367 0.551531 -0.376003 -0.533326 0.238813 1.347656 -0.003805 0.767082 -0.012816
impossible -1.953963 -0.827269 -1.384656 1.187720 -0.580773 -0.941784 -1.791035 -0.211989 -0.433224 0.059550
things -0.497759 -0.190143 -0.294464 -0.374855 -0.697758 -0.634374 -0.451394 -0.071337 -0.076468 0.058738
From 0.460490 0.937469 -0.993603 -0.545630 -0.245952 1.172650 0.572337 0.876793 0.860652 -1.150721
Old -0.093001 0.463995 -0.133885 -0.091795 0.171827 0.507597 0.023588 0.277771 -0.186521 -1.222737
Racism 0.041412 0.619967 0.878437 -0.171979 0.034852 1.168682 -0.048691 -0.596873 0.503641 -1.052208
big 0.038091 -0.626700 -0.413214 0.158265 -0.470695 0.179533 0.248753 -0.629604 -0.086555 0.013890
felt -0.914889 0.062139 0.415254 -0.488277 -0.644586 -0.084794 -0.451652 -0.747206 -0.341865 -0.507069
giving -0.491143 -0.108368 0.610161 0.071427 -1.051079 -1.193957 -0.099486 0.249596 0.012423 1.233744
ground -0.838887 0.450332 -0.743115 -1.388973 1.662503 0.836890 0.149442 -0.011115 0.565071 1.478578
heterosexuality 0.155306 0.393282 -0.008668 0.433342 -0.151462 -0.029252 0.836601 0.381831 0.264037 -0.376085
jobs -0.466267 0.726115 -0.460878 -0.166612 -0.046548 -1.169076 -0.060873 0.425809 1.039500 1.096329
opinion -0.219564 0.476545 0.250455 -0.472702 -0.546257 -1.309499 0.194215 0.213861 0.072490 -0.195153
p -0.333669 0.322040 -0.240479 -0.087238 -0.068792 0.155260 -0.048385 0.313005 0.695439 -0.064574
pay -0.084990 0.197715 -0.774820 -0.984985 0.515502 0.285002 0.049679 0.551513 0.050752 -0.645708
prevent 0.519948 -0.896268 -0.462454 0.635227 0.939834 -0.465966 0.743857 1.056631 0.568632 0.952190
Be -0.326939 0.774483 0.408448 0.637337 -1.465449 -0.973471 -1.115024 0.720999 -0.474011 0.629169
TO 0.456725 0.701134 0.056697 0.241565 0.053796 1.064515 -0.347463 -0.856642 0.797743 0.042766
Where -0.412340 -0.168844 -0.470402 0.195503 -0.085408 -0.654637 -0.416445 -0.657820 0.761358 0.290315
bias 0.400283 0.686568 -0.740966 0.395685 0.593586 -0.485186 -0.239320 0.555395 0.486132 0.197218
past -0.567480 0.428924 0.623160 -0.004364 -0.251846 -1.443531 -0.521434 0.575550 -0.503931 0.163017
seem 0.067490 1.305821 -0.190333 -0.866403 -0.769449 -0.860501 -0.230250 0.658706 -0.297840 -0.339360
whatever -0.678590 0.404759 0.634603 -0.561665 -0.910465 -0.969464 -0.850940 0.372878 -0.624460 0.267311
